{"learner":{"attributes":{},"feature_names":[],"feature_types":[],"gradient_booster":{"model":{"cats":{"enc":[],"feature_segments":[],"sorted_idx":[]},"gbtree_model_param":{"num_parallel_tree":"1","num_trees":"100"},"iteration_indptr":[0,1,2,3,4,5,6,7,8,9,10,11,12,13,14,15,16,17,18,19,20,21,22,23,24,25,26,27,28,29,30,31,32,33,34,35,36,37,38,39,40,41,42,43,44,45,46,47,48,49,50,51,52,53,54,55,56,57,58,59,60,61,62,63,64,65,66,67,68,69,70,71,72,73,74,75,76,77,78,79,80,81,82,83,84,85,86,87,88,89,90,91,92,93,94,95,96,97,98,99,100],"tree_info":[0,0,0,0,0,0,0,0,0,0,0,0,0,0,0,0,0,0,0,0,0,0,0,0,0,0,0,0,0,0,0,0,0,0,0,0,0,0,0,0,0,0,0,0,0,0,0,0,0,0,0,0,0,0,0,0,0,0,0,0,0,0,0,0,0,0,0,0,0,0,0,0,0,0,0,0,0,0,0,0,0,0,0,0,0,0,0,0,0,0,0,0,0,0,0,0,0,0,0,0],"trees":[{"base_weights":[3.133272E-8,1.3544015E0,-8.3215356E-1,1.9794042E-1,8.838785E-1,-1.3052788E0,1.1415639E0,-1.1361938E0,1.3836178E0,1.953923E-1,-1.6261003E0,8.2702804E-1,1.6732057E0,-1.9842209E-1,1.4717934E0,6.8841314E-1,1.7750278E0,-1.8935965E0,1.6410176E0,-1.764706E-1,9.012225E-1,2.8102595E-1,1.7798487E0,1.7903034E-1,-1.5555556E-1,-1.6339618E-1,1.8768182E-1,1.4212796E-1,1.974377E-1,-1.6411935E-1,-1.9547412E-1,6.2235117E-2,1.9605216E-1,1.0186189E-1,-9.608802E-3,1.7539999E-1,-1.68E-1,1.5765917E-1,1.9623499E-1],"categories":[],"categories_nodes":[],"categories_segments":[],"categories_sizes":[],"default_left":[0,0,0,0,0,0,0,0,0,0,0,0,0,0,0,0,0,0,0,0,0,0,0,0,0,0,0,0,0,0,0,0,0,0,0,0,0,0,0],"id":0,"left_children":[1,3,5,-1,7,9,11,13,15,-1,17,19,21,-1,23,25,27,29,31,-1,33,35,37,-1,-1,-1,-1,-1,-1,-1,-1,-1,-1,-1,-1,-1,-1,-1,-1],"loss_changes":[4.3578164E3,4.3098706E2,2.2379756E3,0E0,8.508786E2,2.0236992E3,7.614526E1,3.731504E2,1.8242676E2,0E0,1.541019E3,5.798436E1,2.4941223E1,0E0,4.2945915E1,6.7853467E2,2.7599243E1,2.1901855E1,4.2298584E1,0E0,3.3556274E1,4.15956E1,2.8035583E0,0E0,0E0,0E0,0E0,0E0,0E0,0E0,0E0,0E0,0E0,0E0,0E0,0E0,0E0,0E0,0E0],"parents":[2147483647,0,0,1,1,2,2,4,4,5,5,6,6,7,7,8,8,10,10,11,11,12,12,14,14,15,15,16,16,17,17,18,18,20,20,21,21,22,22],"right_children":[2,4,6,-1,8,10,12,14,16,-1,18,20,22,-1,24,26,28,30,32,-1,34,36,38,-1,-1,-1,-1,-1,-1,-1,-1,-1,-1,-1,-1,-1,-1,-1,-1],"split_conditions":[-8.695113E-1,-1.3008835E0,1.4984744E0,1.9794042E-1,1.0880076E0,-2.560895E0,5.8855027E-1,1.5613595E0,1.8690468E0,1.953923E-1,1.6665108E0,-6.153278E-1,1.5613595E0,-1.9842209E-1,-3.5330456E-1,1.2783765E0,2.5051866E0,-5.4901904E-1,2.5051866E0,-1.764706E-1,1.12714365E-1,4.037047E-1,1.3270653E0,1.7903034E-1,-1.5555556E-1,-1.6339618E-1,1.8768182E-1,1.4212796E-1,1.974377E-1,-1.6411935E-1,-1.9547412E-1,6.2235117E-2,1.9605216E-1,1.0186189E-1,-9.608802E-3,1.7539999E-1,-1.68E-1,1.5765917E-1,1.9623499E-1],"split_indices":[3,7,5,0,6,6,4,5,6,0,4,3,5,0,1,5,6,3,6,0,6,6,6,0,0,0,0,0,0,0,0,0,0,0,0,0,0,0,0],"split_type":[0,0,0,0,0,0,0,0,0,0,0,0,0,0,0,0,0,0,0,0,0,0,0,0,0,0,0,0,0,0,0,0,0,0,0,0,0,0,0],"sum_hessian":[3.8645E3,1.4705028E3,2.3939973E3,6.3019653E2,8.403063E2,1.9313635E3,4.626338E2,1.6640038E2,6.7390594E2,1.7262178E2,1.7587417E3,2.9227216E2,1.7036163E2,1.2575E2,4.065037E1,2.437417E2,4.301642E2,1.6260304E3,1.3271126E2,7.5E0,2.8477216E2,1.2380074E1,1.5798155E2,3.715037E1,3.5E0,8.238007E1,1.6136163E2,1.579714E2,2.721928E2,3.225203E2,1.3035101E3,3.239022E1,1.0032104E2,2.54762E2,3.0010147E1,7.130074E0,5.25E0,7.930074E1,7.868082E1],"tree_param":{"num_deleted":"0","num_feature":"8","num_nodes":"39","size_leaf_vector":"1"}},{"base_weights":[1.8473291E-4,1.2305698E0,-7.551175E-1,1.7999081E-1,8.025776E-1,-1.1946652E0,9.987799E-1,-1.0335577E0,1.2562296E0,1.7770281E-1,-1.4895418E0,6.885173E-1,1.5136284E0,-1.8055235E-1,1.335749E0,7.3413974E-1,1.7019227E0,-1.7206209E0,1.5659262E0,-8.515096E-1,8.336739E-1,6.8913573E-1,1.6172107E0,1.629074E-1,-1.4415668E-1,-1.6008121E-1,1.7889686E-1,-1.1367579E-1,1.7148957E-1,-1.4914079E-1,-1.7768206E-1,5.3504724E-2,1.7838879E-1,6.934928E-2,-1.8585873E-1,-1.5994225E-1,9.006304E-2,1.4429164E-1,-1.5354241E-1,1.4299564E-1,1.7860673E-1],"categories":[],"categories_nodes":[],"categories_segments":[],"categories_sizes":[],"default_left":[0,0,0,0,0,0,0,0,0,0,0,0,0,0,0,0,0,0,0,0,0,0,0,0,0,0,0,0,0,0,0,0,0,0,0,0,0,0,0,0,0],"id":1,"left_children":[1,3,5,-1,7,9,11,13,15,-1,17,19,21,-1,23,25,27,29,31,33,35,37,39,-1,-1,-1,-1,-1,-1,-1,-1,-1,-1,-1,-1,-1,-1,-1,-1,-1,-1],"loss_changes":[3.563184E3,3.539353E2,1.8327349E3,0E0,6.9629956E2,1.667717E3,7.5094055E1,3.0576178E2,1.5454126E2,0E0,1.2235808E3,6.760358E1,1.4120605E1,0E0,3.6020752E1,7.666086E2,1.5222534E1,1.8064941E1,2.6480957E1,4.2163963E1,4.607341E1,3.8523457E1,2.4335327E0,0E0,0E0,0E0,0E0,0E0,0E0,0E0,0E0,0E0,0E0,0E0,0E0,0E0,0E0,0E0,0E0,0E0,0E0],"parents":[2147483647,0,0,1,1,2,2,4,4,5,5,6,6,7,7,8,8,10,10,11,11,12,12,14,14,15,15,16,16,17,17,18,18,19,19,20,20,21,21,22,22],"right_children":[2,4,6,-1,8,10,12,14,16,-1,18,20,22,-1,24,26,28,30,32,34,36,38,40,-1,-1,-1,-1,-1,-1,-1,-1,-1,-1,-1,-1,-1,-1,-1,-1,-1,-1],"split_conditions":[-8.695113E-1,-1.3008835E0,1.4827532E0,1.7999081E-1,1.0880076E0,-2.560895E0,5.8855027E-1,1.5613595E0,1.0111145E0,1.7770281E-1,1.7463597E0,1.529917E0,1.5613595E0,-1.8055235E-1,-3.5330456E-1,2.5051866E0,-1.6940418E0,-5.4901904E-1,2.5051866E0,-1.0180644E0,-6.153278E-1,-7.589967E-1,1.3270653E0,1.629074E-1,-1.4415668E-1,-1.6008121E-1,1.7889686E-1,-1.1367579E-1,1.7148957E-1,-1.4914079E-1,-1.7768206E-1,5.3504724E-2,1.7838879E-1,6.934928E-2,-1.8585873E-1,-1.5994225E-1,9.006304E-2,1.4429164E-1,-1.5354241E-1,1.4299564E-1,1.7860673E-1],"split_indices":[3,7,5,0,6,6,4,5,5,0,4,5,5,0,1,6,2,3,6,2,3,3,6,0,0,0,0,0,0,0,0,0,0,0,0,0,0,0,0,0,0],"split_type":[0,0,0,0,0,0,0,0,0,0,0,0,0,0,0,0,0,0,0,0,0,0,0,0,0,0,0,0,0,0,0,0,0,0,0,0,0,0,0,0,0],"sum_hessian":[3.832215E3,1.4574326E3,2.3747825E3,6.240638E2,8.333688E2,1.8991514E3,4.7563123E2,1.6485353E2,6.6851526E2,1.7098462E2,1.7281667E3,2.982403E2,1.7739091E2,1.2452035E2,4.0333183E1,3.0909042E2,3.5942484E2,1.6070645E3,1.2110227E2,2.5270365E1,2.7296994E2,2.0652742E1,1.5673817E2,3.685427E1,3.4789124E0,9.602141E1,2.1306903E2,1.2410419E0,3.5818378E2,3.2186395E2,1.2852006E3,2.173909E1,9.936318E1,1.0094828E1,1.5175538E1,6.6977196E0,2.6627222E2,1.5688234E1,4.9645076E0,7.880999E1,7.7928185E1],"tree_param":{"num_deleted":"0","num_feature":"8","num_nodes":"41","size_leaf_vector":"1"}},{"base_weights":[2.2576819E-4,1.1355417E0,-6.949133E-1,1.6644555E-1,7.392969E-1,-1.1020286E0,9.101693E-1,-9.5549184E-1,1.1568108E0,1.6427664E-1,-1.3739524E0,6.1032546E-1,1.373893E0,-1.6707936E-1,1.2284336E0,7.3014987E-1,1.6246941E0,-1.5875121E0,1.4427648E0,7.4949294E-1,-8.3612263E-1,4.9323E-1,1.4878883E0,1.5024827E-1,-1.3473612E-1,-1.4609765E-1,1.5451288E-1,1.6688752E-1,1.3366173E-1,-1.3676281E-1,-1.6418596E-1,4.8505202E-2,1.65E-1,-5.9416052E-2,8.6925566E-2,6.432036E-2,-1.9062291E-1,1.3224415E-1,-1.5025972E-1,1.3244651E-1,1.652488E-1],"categories":[],"categories_nodes":[],"categories_segments":[],"categories_sizes":[],"default_left":[0,0,0,0,0,0,0,0,0,0,0,0,0,0,0,0,0,0,0,0,0,0,0,0,0,0,0,0,0,0,0,0,0,0,0,0,0,0,0,0,0],"id":2,"left_children":[1,3,5,-1,7,9,11,13,15,-1,17,19,21,-1,23,25,27,29,31,33,35,37,39,-1,-1,-1,-1,-1,-1,-1,-1,-1,-1,-1,-1,-1,-1,-1,-1,-1,-1],"loss_changes":[2.9598577E3,2.9726892E2,1.521043E3,0E0,5.785479E2,1.387512E3,6.467734E1,2.5488683E2,1.2961206E2,0E0,1.0184231E3,5.859178E1,1.776117E1,0E0,3.0618622E1,6.174723E2,1.7363281E0,1.652417E1,2.2931473E1,4.28721E1,4.1983295E1,3.940578E1,2.1856995E0,0E0,0E0,0E0,0E0,0E0,0E0,0E0,0E0,0E0,0E0,0E0,0E0,0E0,0E0,0E0,0E0,0E0,0E0],"parents":[2147483647,0,0,1,1,2,2,4,4,5,5,6,6,7,7,8,8,10,10,11,11,12,12,14,14,15,15,16,16,17,17,18,18,19,19,20,20,21,21,22,22],"right_children":[2,4,6,-1,8,10,12,14,16,-1,18,20,22,-1,24,26,28,30,32,34,36,38,40,-1,-1,-1,-1,-1,-1,-1,-1,-1,-1,-1,-1,-1,-1,-1,-1,-1,-1],"split_conditions":[-8.695113E-1,-1.3008835E0,1.4827532E0,1.6644555E-1,1.0880076E0,-2.560895E0,5.286636E-1,1.5613595E0,1.2469338E0,1.6427664E-1,1.7463597E0,1.12714365E-1,1.5613595E0,-1.6707936E-1,-3.5330456E-1,2.2454157E0,7.553295E-1,-5.4901904E-1,2.5051866E0,1.529917E0,-5.3244185E-1,-7.589967E-1,1.3270653E0,1.5024827E-1,-1.3473612E-1,-1.4609765E-1,1.5451288E-1,1.6688752E-1,1.3366173E-1,-1.3676281E-1,-1.6418596E-1,4.8505202E-2,1.65E-1,-5.9416052E-2,8.6925566E-2,6.432036E-2,-1.9062291E-1,1.3224415E-1,-1.5025972E-1,1.3244651E-1,1.652488E-1],"split_indices":[3,7,5,0,6,6,4,5,5,0,4,6,5,0,1,4,0,3,6,5,3,3,6,0,0,0,0,0,0,0,0,0,0,0,0,0,0,0,0,0,0],"split_type":[0,0,0,0,0,0,0,0,0,0,0,0,0,0,0,0,0,0,0,0,0,0,0,0,0,0,0,0,0,0,0,0,0,0,0,0,0,0,0,0,0],"sum_hessian":[3.748442E3,1.4232789E3,2.325163E3,6.082185E2,8.150605E2,1.8549774E3,4.701856E2,1.6084865E2,6.542118E2,1.6675122E2,1.6882262E3,2.8695596E2,1.8322964E2,1.2134082E2,3.950783E1,3.4351892E2,3.1069287E2,1.5696536E3,1.1857264E2,2.6220975E2,2.4746218E1,2.1609982E1,1.6161967E2,3.608527E1,3.4225628E0,9.291581E1,2.5060313E2,2.6522357E2,4.5469315E1,3.162605E2,1.2533931E3,2.1687437E1,9.68852E1,2.1134485E1,2.4107526E2,1.0554501E1,1.4191716E1,1.5505335E1,6.1046457E0,8.563919E1,7.5980484E1],"tree_param":{"num_deleted":"0","num_feature":"8","num_nodes":"41","size_leaf_vector":"1"}},{"base_weights":[3.363424E-4,1.0604709E0,-6.460976E-1,1.5587617E-1,6.889407E-1,-1.0283482E0,8.3395344E-1,-8.9411545E-1,1.0773836E0,1.537389E-1,-1.2819206E0,5.5404556E-1,1.2754772E0,-1.5658277E-1,1.1409965E0,6.7869794E-1,1.5159996E0,-1.4816906E0,1.3429793E0,6.8212324E-1,-7.696144E-1,4.527726E-1,1.38274E0,1.3997953E-1,-1.2679774E-1,-1.3490687E-1,1.4400196E-1,1.558905E-1,1.23897195E-1,-1.2648489E-1,-1.5359221E-1,4.4018265E-2,1.5451027E-1,2.8964108E-2,1.0349997E-1,-1.7643283E-1,5.9735704E-2,1.2217214E-1,-1.407737E-1,1.2496133E-1,1.6054015E-1],"categories":[],"categories_nodes":[],"categories_segments":[],"categories_sizes":[],"default_left":[0,0,0,0,0,0,0,0,0,0,0,0,0,0,0,0,0,0,0,0,0,0,0,0,0,0,0,0,0,0,0,0,0,0,0,0,0,0,0,0,0],"id":3,"left_children":[1,3,5,-1,7,9,11,13,15,-1,17,19,21,-1,23,25,27,29,31,33,35,37,39,-1,-1,-1,-1,-1,-1,-1,-1,-1,-1,-1,-1,-1,-1,-1,-1,-1,-1],"loss_changes":[2.4884985E3,2.53568E2,1.2770452E3,0E0,4.866048E2,1.1686165E3,5.6582794E1,2.1524681E2,1.0994415E2,0E0,8.580071E2,4.8921272E1,1.5177673E1,0E0,2.629367E1,5.1794293E2,1.6505127E0,1.5902344E1,2.0482895E1,3.5822655E1,3.5938484E1,3.3398403E1,2.6757507E0,0E0,0E0,0E0,0E0,0E0,0E0,0E0,0E0,0E0,0E0,0E0,0E0,0E0,0E0,0E0,0E0,0E0,0E0],"parents":[2147483647,0,0,1,1,2,2,4,4,5,5,6,6,7,7,8,8,10,10,11,11,12,12,14,14,15,15,16,16,17,17,18,18,19,19,20,20,21,21,22,22],"right_children":[2,4,6,-1,8,10,12,14,16,-1,18,20,22,-1,24,26,28,30,32,34,36,38,40,-1,-1,-1,-1,-1,-1,-1,-1,-1,-1,-1,-1,-1,-1,-1,-1,-1,-1],"split_conditions":[-8.695113E-1,-1.3008835E0,1.4827532E0,1.5587617E-1,1.0880076E0,-2.560895E0,5.286636E-1,1.5613595E0,1.2469338E0,1.537389E-1,1.7463597E0,1.3940002E-1,1.5613595E0,-1.5658277E-1,-3.5330456E-1,2.2454157E0,7.553295E-1,-5.4901904E-1,2.5051866E0,1.6714085E0,4.1887128E-1,-7.589967E-1,1.8286214E0,1.3997953E-1,-1.2679774E-1,-1.3490687E-1,1.4400196E-1,1.558905E-1,1.23897195E-1,-1.2648489E-1,-1.5359221E-1,4.4018265E-2,1.5451027E-1,2.8964108E-2,1.0349997E-1,-1.7643283E-1,5.9735704E-2,1.2217214E-1,-1.407737E-1,1.2496133E-1,1.6054015E-1],"split_indices":[3,7,5,0,6,6,4,5,5,0,4,4,5,0,1,4,0,3,6,5,4,3,5,0,0,0,0,0,0,0,0,0,0,0,0,0,0,0,0,0,0],"split_type":[0,0,0,0,0,0,0,0,0,0,0,0,0,0,0,0,0,0,0,0,0,0,0,0,0,0,0,0,0,0,0,0,0,0,0,0,0,0,0,0,0],"sum_hessian":[3.629218E3,1.374475E3,2.2547432E3,5.857203E2,7.8875464E2,1.7921837E3,4.625595E2,1.5515123E2,6.336034E2,1.6073598E2,1.6314478E3,2.8447128E2,1.7808821E2,1.1682304E2,3.83282E1,3.3324414E2,3.0035925E2,1.516471E3,1.14976715E2,2.598161E2,2.4655203E1,2.1142971E1,1.5694524E2,3.4988293E1,3.3399074E0,9.0753044E1,2.424911E2,2.560723E2,4.4286957E1,3.082539E2,1.208217E3,2.1614052E1,9.336266E1,1.2386722E2,1.3594887E2,1.4102471E1,1.0552731E1,1.5202936E1,5.940035E0,1.0235846E2,5.458678E1],"tree_param":{"num_deleted":"0","num_feature":"8","num_nodes":"41","size_leaf_vector":"1"}},{"base_weights":[4.5990583E-4,9.9954957E-1,-6.0534936E-1,1.4741383E-1,6.476909E-1,-9.4720244E-1,8.536358E-1,-8.445907E-1,1.012176E0,1.4524834E-1,-1.177487E0,6.2206954E-1,1.2321374E0,-1.4819773E-1,1.0678204E0,6.4464235E-1,1.4386765E0,-1.3713919E0,1.1914479E0,7.3183864E-1,-5.8269936E-1,-1.2769376E-1,1.2939523E0,1.3142243E-1,-1.19994245E-1,-1.0797419E-1,1.3531157E-1,1.4731322E-1,1.2143636E-1,-1.3960262E-1,-4.4968384E-3,4.17708E-2,1.4607786E-1,7.726348E-2,-1.7462054E-1,9.302141E-2,-1.6944624E-1,1.1196418E-1,1.4758694E-1],"categories":[],"categories_nodes":[],"categories_segments":[],"categories_sizes":[],"default_left":[0,0,0,0,0,0,0,0,0,0,0,0,0,0,0,0,0,0,0,0,0,0,0,0,0,0,0,0,0,0,0,0,0,0,0,0,0,0,0],"id":4,"left_children":[1,3,5,-1,7,9,11,13,15,-1,17,19,21,-1,23,25,27,29,31,33,35,-1,37,-1,-1,-1,-1,-1,-1,-1,-1,-1,-1,-1,-1,-1,-1,-1,-1],"loss_changes":[2.1114128E3,2.1893579E2,1.083937E3,0E0,4.131203E2,9.7423816E2,3.541208E1,1.836117E2,9.4633545E1,0E0,7.395E2,3.456092E1,2.5794449E1,0E0,2.276104E1,4.0371313E2,3.8568115E-1,4.8468994E1,2.4828339E1,2.5308868E1,3.8765514E1,0E0,3.1805115E0,0E0,0E0,0E0,0E0,0E0,0E0,0E0,0E0,0E0,0E0,0E0,0E0,0E0,0E0,0E0,0E0],"parents":[2147483647,0,0,1,1,2,2,4,4,5,5,6,6,7,7,8,8,10,10,11,11,12,12,14,14,15,15,16,16,17,17,18,18,19,19,20,20,22,22],"right_children":[2,4,6,-1,8,10,12,14,16,-1,18,20,22,-1,24,26,28,30,32,34,36,-1,38,-1,-1,-1,-1,-1,-1,-1,-1,-1,-1,-1,-1,-1,-1,-1,-1],"split_conditions":[-8.695113E-1,-1.3008835E0,1.529917E0,1.4741383E-1,1.0880076E0,-2.560895E0,5.286636E-1,1.5613595E0,1.2783765E0,1.4524834E-1,1.6665108E0,1.12714365E-1,1.5613595E0,-1.4819773E-1,-3.5330456E-1,2.2454157E0,7.553295E-1,1.4984744E0,2.5051866E0,1.5997208E0,-5.3244185E-1,-1.2769376E-1,1.3270653E0,1.3142243E-1,-1.19994245E-1,-1.0797419E-1,1.3531157E-1,1.4731322E-1,1.2143636E-1,-1.3960262E-1,-4.4968384E-3,4.17708E-2,1.4607786E-1,7.726348E-2,-1.7462054E-1,9.302141E-2,-1.6944624E-1,1.1196418E-1,1.4758694E-1],"split_indices":[3,7,5,0,6,6,4,5,5,0,4,6,5,0,1,4,0,5,6,7,3,0,6,0,0,0,0,0,0,0,0,0,0,0,0,0,0,0,0],"split_type":[0,0,0,0,0,0,0,0,0,0,0,0,0,0,0,0,0,0,0,0,0,0,0,0,0,0,0,0,0,0,0,0,0,0,0,0,0,0,0],"sum_hessian":[3.4864521E3,1.3158033E3,2.170649E3,5.588432E2,7.5696014E2,1.7588789E3,4.1177002E2,1.4833344E2,6.086267E2,1.5354562E2,1.6053333E3,2.571127E2,1.5465732E2,1.1142255E2,3.691088E1,3.2826138E2,2.8036533E2,1.4842627E3,1.2107058E2,2.3600255E2,2.1110153E1,3.2459552E0,1.5141136E2,3.3672653E1,3.2382274E0,9.5440506E1,2.3282086E2,2.3820787E2,4.215747E1,1.4571482E3,2.7114511E1,3.1920237E1,8.915034E1,2.3285722E2,3.1453311E0,9.011029E0,1.2099124E1,8.0975975E1,7.0435394E1],"tree_param":{"num_deleted":"0","num_feature":"8","num_nodes":"39","size_leaf_vector":"1"}},{"base_weights":[5.5927946E-4,9.483381E-1,-5.7059884E-1,1.4049761E-1,6.124164E-1,-9.176466E-1,7.0855904E-1,-8.037728E-1,9.559675E-1,1.3825928E-1,-1.143365E0,4.662991E-1,1.1459444E0,-1.4136565E-1,1.0051595E0,5.9385914E-1,1.3583347E0,-1.3226829E0,1.1886022E0,-6.960261E-1,5.782955E-1,9.159688E-1,1.3844588E-1,1.241254E-1,-1.1407578E-1,-1.1853027E-1,1.279534E-1,1.4025849E-1,1.0815209E-1,-1.0883363E-1,-1.3827287E-1,3.6156997E-2,1.3915676E-1,6.972684E-2,-1.6327016E-1,-1.5342693E-1,6.382211E-2,-2.0409463E-1,1.08451545E-1],"categories":[],"categories_nodes":[],"categories_segments":[],"categories_sizes":[],"default_left":[0,0,0,0,0,0,0,0,0,0,0,0,0,0,0,0,0,0,0,0,0,0,0,0,0,0,0,0,0,0,0,0,0,0,0,0,0,0,0],"id":5,"left_children":[1,3,5,-1,7,9,11,13,15,-1,17,19,21,-1,23,25,27,29,31,33,35,37,-1,-1,-1,-1,-1,-1,-1,-1,-1,-1,-1,-1,-1,-1,-1,-1,-1],"loss_changes":[1.8037821E3,1.9133691E2,9.236496E2,0E0,3.5285953E2,8.5094214E2,4.6541626E1,1.5788742E2,8.4114746E1,0E0,6.2474E2,3.784124E1,7.380829E0,0E0,1.9829441E1,3.7792258E2,1.8552246E0,1.7974365E1,1.7447311E1,3.471795E1,3.4257706E1,4.3693687E1,0E0,0E0,0E0,0E0,0E0,0E0,0E0,0E0,0E0,0E0,0E0,0E0,0E0,0E0,0E0,0E0,0E0],"parents":[2147483647,0,0,1,1,2,2,4,4,5,5,6,6,7,7,8,8,10,10,11,11,12,12,14,14,15,15,16,16,17,17,18,18,19,19,20,20,21,21],"right_children":[2,4,6,-1,8,10,12,14,16,-1,18,20,22,-1,24,26,28,30,32,34,36,38,-1,-1,-1,-1,-1,-1,-1,-1,-1,-1,-1,-1,-1,-1,-1,-1,-1],"split_conditions":[-8.695113E-1,-1.3008835E0,1.4827532E0,1.4049761E-1,1.0880076E0,-2.560895E0,5.8855027E-1,1.5613595E0,1.2469338E0,1.3825928E-1,1.7463597E0,1.529917E0,1.3270653E0,-1.4136565E-1,-3.5330456E-1,2.2454157E0,7.553295E-1,-5.4901904E-1,2.5051866E0,-1.0180644E0,-6.153278E-1,-4.7728235E-1,1.3844588E-1,1.241254E-1,-1.1407578E-1,-1.1853027E-1,1.279534E-1,1.4025849E-1,1.0815209E-1,-1.0883363E-1,-1.3827287E-1,3.6156997E-2,1.3915676E-1,6.972684E-2,-1.6327016E-1,-1.5342693E-1,6.382211E-2,-2.0409463E-1,1.08451545E-1],"split_indices":[3,7,5,0,6,6,4,5,5,0,4,5,6,0,1,4,0,3,6,2,3,2,0,0,0,0,0,0,0,0,0,0,0,0,0,0,0,0,0],"split_type":[0,0,0,0,0,0,0,0,0,0,0,0,0,0,0,0,0,0,0,0,0,0,0,0,0,0,0,0,0,0,0,0,0,0,0,0,0,0,0],"sum_hessian":[3.330121E3,1.2519602E3,2.078161E3,5.292869E2,7.226733E2,1.6348839E3,4.4327698E2,1.4082474E2,5.818486E2,1.4563448E2,1.4892495E3,2.8660028E2,1.566767E2,1.0548041E2,3.534433E1,3.075481E2,2.7430048E2,1.3833118E3,1.0593767E2,2.4730158E1,2.6187012E2,8.2230446E1,7.444625E1,3.2220943E1,3.123385E0,8.535184E1,2.2219626E2,2.3298897E2,4.131151E1,2.8604858E2,1.0972632E3,2.1423567E1,8.451411E1,1.0044566E1,1.4685592E1,6.5447397E0,2.5532538E2,3.83536E0,7.839509E1],"tree_param":{"num_deleted":"0","num_feature":"8","num_nodes":"39","size_leaf_vector":"1"}},{"base_weights":[5.41372E-4,9.05453E-1,-5.4046804E-1,1.3474813E0,5.8271754E-1,-8.6779517E-1,6.786641E-1,1.3668798E-1,1.180669E0,-7.6952124E-1,9.087635E-1,1.3240097E-1,-1.079874E0,4.5716786E-1,1.0664034E0,1.2514141E-1,5.367124E-2,-1.3570869E-1,9.504157E-1,6.028216E-1,1.3649967E-1,-1.2615322E0,1.067233E0,5.987214E-1,-4.8354474E-1,-2.8508198E-3,1.1586775E0,1.1777576E-1,-1.088584E-1,-1.2284254E-1,1.2396219E-1,-1.0185372E-1,-1.3243514E-1,3.6428776E-2,1.3337633E-1,6.3678585E-2,-1.6534112E-1,-1.7711522E-1,6.113735E-2,1.2298705E-1,-1.4395191E-1,9.9050395E-2,1.353994E-1],"categories":[],"categories_nodes":[],"categories_segments":[],"categories_sizes":[],"default_left":[0,0,0,0,0,0,0,0,0,0,0,0,0,0,0,0,0,0,0,0,0,0,0,0,0,0,0,0,0,0,0,0,0,0,0,0,0,0,0,0,0,0,0],"id":6,"left_children":[1,3,5,7,9,11,13,-1,15,17,19,-1,21,23,25,-1,-1,-1,27,29,-1,31,33,35,37,39,41,-1,-1,-1,-1,-1,-1,-1,-1,-1,-1,-1,-1,-1,-1,-1,-1],"loss_changes":[1.5505063E3,1.6826648E2,7.915534E2,1.8920898E-3,3.0345587E2,7.279668E2,3.5591476E1,0E0,2.0324707E0,1.366536E2,7.6469086E1,0E0,5.5740845E2,3.6125088E1,1.4998459E1,0E0,0E0,0E0,1.7365175E1,3.9014816E2,0E0,1.87229E1,2.04515E1,2.1143936E1,5.1486404E1,2.4919737E1,3.2545013E0,0E0,0E0,0E0,0E0,0E0,0E0,0E0,0E0,0E0,0E0,0E0,0E0,0E0,0E0,0E0,0E0],"parents":[2147483647,0,0,1,1,2,2,3,3,4,4,5,5,6,6,8,8,9,9,10,10,12,12,13,13,14,14,18,18,19,19,21,21,22,22,23,23,24,24,25,25,26,26],"right_children":[2,4,6,8,10,12,14,-1,16,18,20,-1,22,24,26,-1,-1,-1,28,30,-1,32,34,36,38,40,42,-1,-1,-1,-1,-1,-1,-1,-1,-1,-1,-1,-1,-1,-1,-1,-1],"split_conditions":[-8.695113E-1,-1.3008835E0,1.4984744E0,-1.4009043E0,1.0880076E0,-2.560895E0,5.286636E-1,1.3668798E-1,1.1992422E0,1.5613595E0,2.5051866E0,1.3240097E-1,1.6665108E0,1.4444821E-2,1.5613595E0,1.2514141E-1,5.367124E-2,-1.3570869E-1,-3.5330456E-1,1.089721E0,1.3649967E-1,-5.4901904E-1,2.5051866E0,1.5997208E0,7.98585E-1,4.037047E-1,1.7657362E0,1.1777576E-1,-1.088584E-1,-1.2284254E-1,1.2396219E-1,-1.0185372E-1,-1.3243514E-1,3.6428776E-2,1.3337633E-1,6.3678585E-2,-1.6534112E-1,-1.7711522E-1,6.113735E-2,1.2298705E-1,-1.4395191E-1,9.9050395E-2,1.353994E-1],"split_indices":[3,7,5,7,6,6,4,0,1,5,6,0,4,6,5,0,0,0,1,5,0,3,6,7,1,6,5,0,0,0,0,0,0,0,0,0,0,0,0,0,0,0,0],"split_type":[0,0,0,0,0,0,0,0,0,0,0,0,0,0,0,0,0,0,0,0,0,0,0,0,0,0,0,0,0,0,0,0,0,0,0,0,0,0,0,0,0,0,0],"sum_hessian":[3.165106E3,1.1840118E3,1.981094E3,4.9832104E2,6.856908E2,1.5619983E3,4.190957E2,4.3996393E2,5.8357136E1,1.3294719E2,5.527436E2,1.3734227E2,1.424656E3,2.6811435E2,1.5098135E2,5.1730682E1,6.6264524E0,9.925173E1,3.369546E1,3.3225833E2,2.204853E2,1.3139043E3,1.1075178E2,2.333627E2,3.4751656E1,1.207124E1,1.3891011E2,3.0695406E1,3.0000558E0,8.548887E1,2.4676945E2,2.7343314E2,1.0404711E3,3.1098795E1,7.9652985E1,2.3018939E2,3.173304E0,1.5686708E1,1.9064947E1,6.5742245E0,5.497016E0,7.790383E1,6.100628E1],"tree_param":{"num_deleted":"0","num_feature":"8","num_nodes":"43","size_leaf_vector":"1"}},{"base_weights":[6.1007316E-4,8.6891454E-1,-5.1377124E-1,1.2991445E0,5.571282E-1,-8.372718E-1,6.066167E-1,1.319069E-1,1.1295766E0,-4.4483945E-1,9.656378E-1,1.27412E-1,-1.0424864E0,3.868618E-1,1.0276259E0,1.20114915E-1,5.014624E-2,-1.2554866E0,1.1010813E0,6.77254E-1,1.313176E-1,-1.2073001E0,1.0713661E0,-6.449367E-1,4.8603258E-1,7.871757E-1,1.2840402E-1,-1.3722754E-1,4.8304778E-2,1.2095553E-1,-1.5407667E-1,-1.0778796E-1,1.2412554E-1,-9.624933E-2,-1.2726657E-1,2.954611E-2,1.2847519E-1,6.1960626E-2,-1.5227443E-1,-1.4353171E-1,5.404509E-2,-1.9155936E-1,9.5383324E-2],"categories":[],"categories_nodes":[],"categories_segments":[],"categories_sizes":[],"default_left":[0,0,0,0,0,0,0,0,0,0,0,0,0,0,0,0,0,0,0,0,0,0,0,0,0,0,0,0,0,0,0,0,0,0,0,0,0,0,0,0,0,0,0],"id":7,"left_children":[1,3,5,7,9,11,13,-1,15,17,19,-1,21,23,25,-1,-1,27,29,31,-1,33,35,37,39,41,-1,-1,-1,-1,-1,-1,-1,-1,-1,-1,-1,-1,-1,-1,-1,-1,-1],"loss_changes":[1.3392675E3,1.4890979E2,6.8300714E2,9.112549E-2,2.6588324E2,6.346079E2,3.8688934E1,0E0,1.9226761E0,2.3763043E2,4.5315887E1,0E0,4.655758E2,2.8880856E1,7.885147E0,0E0,0E0,2.5867386E1,2.060012E1,2.5278787E2,0E0,1.8565186E1,1.5666962E1,2.8594799E1,2.7466343E1,3.6531113E1,0E0,0E0,0E0,0E0,0E0,0E0,0E0,0E0,0E0,0E0,0E0,0E0,0E0,0E0,0E0,0E0,0E0],"parents":[2147483647,0,0,1,1,2,2,3,3,4,4,5,5,6,6,8,8,9,9,10,10,12,12,13,13,14,14,17,17,18,18,19,19,21,21,22,22,23,23,24,24,25,25],"right_children":[2,4,6,8,10,12,14,-1,16,18,20,-1,22,24,26,-1,-1,28,30,32,-1,34,36,38,40,42,-1,-1,-1,-1,-1,-1,-1,-1,-1,-1,-1,-1,-1,-1,-1,-1,-1],"split_conditions":[-8.695113E-1,-1.3008835E0,1.4827532E0,-1.4009043E0,1.3270653E0,-2.560895E0,5.8855027E-1,1.319069E-1,1.1992422E0,1.5613595E0,2.5051866E0,1.27412E-1,1.7463597E0,1.529917E0,1.3270653E0,1.20114915E-1,5.014624E-2,1.6665108E0,7.553295E-1,1.0582784E0,1.313176E-1,-5.4901904E-1,2.5051866E0,-1.0180644E0,-6.153278E-1,-4.7728235E-1,1.2840402E-1,-1.3722754E-1,4.8304778E-2,1.2095553E-1,-1.5407667E-1,-1.0778796E-1,1.2412554E-1,-9.624933E-2,-1.2726657E-1,2.954611E-2,1.2847519E-1,6.1960626E-2,-1.5227443E-1,-1.4353171E-1,5.404509E-2,-1.9155936E-1,9.5383324E-2],"split_indices":[3,7,5,7,6,6,4,0,1,5,6,0,4,5,6,0,0,4,0,5,0,3,6,2,3,2,0,0,0,0,0,0,0,0,0,0,0,0,0,0,0,0,0],"split_type":[0,0,0,0,0,0,0,0,0,0,0,0,0,0,0,0,0,0,0,0,0,0,0,0,0,0,0,0,0,0,0,0,0,0,0,0,0,0,0,0,0,0,0],"sum_hessian":[2.9965417E3,1.1145052E3,1.8820365E3,4.6697116E2,6.475341E2,1.4605658E3,4.2147073E2,4.118047E2,5.516647E1,1.8751637E2,4.6001773E2,1.2892157E2,1.3316443E3,2.7818497E2,1.4328578E2,4.8704376E1,6.4620905E0,1.2313496E2,6.4381424E1,2.5301613E2,2.070016E2,1.2357256E3,9.59187E1,2.391051E1,2.5427446E2,7.60451E1,6.7240685E1,1.15581276E2,7.5536766E0,6.236296E1,2.018462E0,6.13106E1,1.9170552E2,2.6372995E2,9.719956E2,2.120361E1,7.471509E1,9.917624E0,1.3992886E1,6.304527E0,2.4796992E2,3.807225E0,7.223787E1],"tree_param":{"num_deleted":"0","num_feature":"8","num_nodes":"43","size_leaf_vector":"1"}},{"base_weights":[6.457913E-4,8.373791E-1,-4.8971525E-1,1.2578921E0,5.3492135E-1,-8.0401397E-1,5.612524E-1,1.2786381E-1,1.0835978E0,-4.283198E-1,9.271271E-1,1.23102084E-1,-1.0006818E0,3.4363055E-1,9.556035E-1,1.1566199E0,4.68365E-2,-1.3161628E-1,8.8095564E-1,6.4659715E-1,1.2690398E-1,-1.1596864E0,1.0219454E0,4.7294915E-1,-5.0087756E-1,2.9228735E-1,1.0516685E0,8.376325E-2,1.22773804E-1,1.0403707E-1,-1.6454448E-1,-1.01070546E-1,1.1916786E-1,-9.068932E-2,-1.2288284E-1,2.6857764E-2,1.2426344E-1,1.9506395E-2,8.309305E-2,-1.6482204E-1,5.2975398E-2,9.703397E-2,-1.421115E-1,8.66491E-2,1.2626839E-1],"categories":[],"categories_nodes":[],"categories_segments":[],"categories_sizes":[],"default_left":[0,0,0,0,0,0,0,0,0,0,0,0,0,0,0,0,0,0,0,0,0,0,0,0,0,0,0,0,0,0,0,0,0,0,0,0,0,0,0,0,0,0,0,0,0],"id":8,"left_children":[1,3,5,7,9,11,13,-1,15,17,19,-1,21,23,25,27,-1,-1,29,31,-1,33,35,37,39,41,43,-1,-1,-1,-1,-1,-1,-1,-1,-1,-1,-1,-1,-1,-1,-1,-1,-1,-1],"loss_changes":[1.161442E3,1.3235815E2,5.899896E2,1.9403076E-1,2.3088953E2,5.5126263E2,3.4982864E1,0E0,1.8402672E0,2.0716826E2,4.0796448E1,0E0,4.043977E2,2.9363718E1,8.980423E0,3.1360626E-2,0E0,0E0,3.0795631E1,2.1835193E2,0E0,1.9210327E1,1.4946983E1,2.2896946E1,4.3327217E1,2.4409708E1,3.8658295E0,0E0,0E0,0E0,0E0,0E0,0E0,0E0,0E0,0E0,0E0,0E0,0E0,0E0,0E0,0E0,0E0,0E0,0E0],"parents":[2147483647,0,0,1,1,2,2,3,3,4,4,5,5,6,6,8,8,9,9,10,10,12,12,13,13,14,14,15,15,18,18,19,19,21,21,22,22,23,23,24,24,25,25,26,26],"right_children":[2,4,6,8,10,12,14,-1,16,18,20,-1,22,24,26,28,-1,-1,30,32,-1,34,36,38,40,42,44,-1,-1,-1,-1,-1,-1,-1,-1,-1,-1,-1,-1,-1,-1,-1,-1,-1,-1],"split_conditions":[-8.695113E-1,-1.3008835E0,1.4827532E0,-1.4009043E0,1.3270653E0,-2.560895E0,5.286636E-1,1.2786381E-1,1.1992422E0,1.3727041E0,2.5051866E0,1.23102084E-1,1.7463597E0,1.4444821E-2,1.5613595E0,1.0489957E0,4.68365E-2,-1.3161628E-1,7.553295E-1,1.0582784E0,1.2690398E-1,-5.4901904E-1,2.5051866E0,1.7028512E0,7.98585E-1,-7.038796E-1,1.3270653E0,8.376325E-2,1.22773804E-1,1.0403707E-1,-1.6454448E-1,-1.01070546E-1,1.1916786E-1,-9.068932E-2,-1.2288284E-1,2.6857764E-2,1.2426344E-1,1.9506395E-2,8.309305E-2,-1.6482204E-1,5.2975398E-2,9.703397E-2,-1.421115E-1,8.66491E-2,1.2626839E-1],"split_indices":[3,7,5,7,6,6,4,0,1,5,6,0,4,6,5,1,0,0,0,5,0,3,6,5,1,1,6,0,0,0,0,0,0,0,0,0,0,0,0,0,0,0,0,0,0],"split_type":[0,0,0,0,0,0,0,0,0,0,0,0,0,0,0,0,0,0,0,0,0,0,0,0,0,0,0,0,0,0,0,0,0,0,0,0,0,0,0,0,0,0,0,0,0],"sum_hessian":[2.8287053E3,1.0449445E3,1.7837609E3,4.358352E2,6.0910925E2,1.3733011E3,4.1045972E2,3.8381454E2,5.202065E1,1.7622235E2,4.3288687E2,1.2055807E2,1.252743E3,2.6570328E2,1.4475644E2,4.5714775E1,6.305874E0,1.05008766E2,7.1213585E1,2.3937631E2,1.9351057E2,1.1618345E3,9.090856E1,2.3080095E2,3.490233E1,1.882373E1,1.259327E2,1.0663515E1,3.505126E1,6.754002E1,3.673554E0,5.9033276E1,1.8034303E2,2.5255888E2,9.0927563E2,2.1099174E1,6.980939E1,1.3080649E2,9.999445E1,1.6232447E1,1.8669884E1,1.3797328E1,5.0264015E0,6.979236E1,5.6140347E1],"tree_param":{"num_deleted":"0","num_feature":"8","num_nodes":"45","size_leaf_vector":"1"}},{"base_weights":[8.126024E-4,8.091673E-1,-4.675251E-1,1.2223542E0,5.1455784E-1,-7.5509167E-1,5.865505E-1,1.2441224E-1,1.0423334E0,-4.1314402E-1,8.9286774E-1,1.1932894E-1,-9.3634975E-1,4.763228E-1,1.2136245E-1,1.1173277E0,4.372553E-2,-1.1768628E0,1.010627E0,6.188812E-1,1.23098984E-1,-1.0944254E0,9.1063946E-1,2.7748287E-1,9.892301E-1,7.963671E-2,1.1906133E-1,-1.2930319E-1,4.3756124E-2,1.1160942E-1,-1.3631104E-1,-9.492128E-2,1.1474122E-1,-1.11779965E-1,-8.004809E-3,2.584408E-2,1.205992E-1,1.6232828E-2,1.410543E-1,-1.7518978E-1,1.08533084E-1],"categories":[],"categories_nodes":[],"categories_segments":[],"categories_sizes":[],"default_left":[0,0,0,0,0,0,0,0,0,0,0,0,0,0,0,0,0,0,0,0,0,0,0,0,0,0,0,0,0,0,0,0,0,0,0,0,0,0,0,0,0],"id":9,"left_children":[1,3,5,7,9,11,13,-1,15,17,19,-1,21,23,-1,25,-1,27,29,31,-1,33,35,37,39,-1,-1,-1,-1,-1,-1,-1,-1,-1,-1,-1,-1,-1,-1,-1,-1],"loss_changes":[1.0095964E3,1.1845477E2,5.1225757E2,2.9614258E-1,2.0140077E2,4.6977106E2,2.4476562E1,0E0,1.7809105E0,1.823521E2,3.6961517E1,0E0,3.5562915E2,3.1334297E1,0E0,8.338547E-2,0E0,2.0989899E1,1.6218437E1,1.891771E2,0E0,2.6450317E1,1.823964E1,2.9093931E1,2.4607338E1,0E0,0E0,0E0,0E0,0E0,0E0,0E0,0E0,0E0,0E0,0E0,0E0,0E0,0E0,0E0,0E0],"parents":[2147483647,0,0,1,1,2,2,3,3,4,4,5,5,6,6,8,8,9,9,10,10,12,12,13,13,15,15,17,17,18,18,19,19,21,21,22,22,23,23,24,24],"right_children":[2,4,6,8,10,12,14,-1,16,18,20,-1,22,24,-1,26,-1,28,30,32,-1,34,36,38,40,-1,-1,-1,-1,-1,-1,-1,-1,-1,-1,-1,-1,-1,-1,-1,-1],"split_conditions":[-8.695113E-1,-1.3008835E0,1.529917E0,-1.4009043E0,1.3270653E0,-2.560895E0,1.3270653E0,1.2441224E-1,1.1992422E0,1.5613595E0,2.5051866E0,1.1932894E-1,1.6665108E0,1.8443427E0,1.2136245E-1,1.0489957E0,4.372553E-2,1.6665108E0,7.553295E-1,1.0582784E0,1.23098984E-1,1.4984744E0,2.5051866E0,3.9876037E0,-1.154619E0,7.963671E-2,1.1906133E-1,-1.2930319E-1,4.3756124E-2,1.1160942E-1,-1.3631104E-1,-9.492128E-2,1.1474122E-1,-1.11779965E-1,-8.004809E-3,2.584408E-2,1.205992E-1,1.6232828E-2,1.410543E-1,-1.7518978E-1,1.08533084E-1],"split_indices":[3,7,5,7,6,6,6,0,1,5,6,0,4,5,0,1,0,4,0,5,0,5,6,3,1,0,0,0,0,0,0,0,0,0,0,0,0,0,0,0,0],"split_type":[0,0,0,0,0,0,0,0,0,0,0,0,0,0,0,0,0,0,0,0,0,0,0,0,0,0,0,0,0,0,0,0,0,0,0,0,0,0,0,0,0],"sum_hessian":[2.6647776E3,9.7727136E2,1.6875061E3,4.0546365E2,5.718077E2,1.3260302E3,3.6147595E2,3.564504E2,4.901322E1,1.6560777E2,4.0619995E2,1.1238602E2,1.2136442E3,3.089313E2,5.254464E1,4.285511E1,6.158113E0,1.0790196E2,5.7705803E1,2.2594385E2,1.8025609E2,1.118338E3,9.530617E1,2.2373604E2,8.5195274E1,1.0172104E1,3.2683006E1,1.00844574E2,7.057392E0,5.5758232E1,1.94757E0,5.675676E1,1.6918709E2,1.093049E3,2.5289028E1,3.0291456E1,6.501471E1,2.0413297E2,1.9603071E1,2.3020818E0,8.289319E1],"tree_param":{"num_deleted":"0","num_feature":"8","num_nodes":"41","size_leaf_vector":"1"}},{"base_weights":[1.1507677E-3,7.844385E-1,-4.4622633E-1,1.1913701E0,4.9672112E-1,-7.466645E-1,4.8238525E-1,1.2144136E-1,1.0041986E0,-4.000873E-1,8.619314E-1,1.1598377E0,-9.2838305E-1,2.8889528E-1,8.911075E-1,1.0815804E0,4.079974E-2,-1.2474263E-1,7.985934E-1,5.934489E-1,1.1978183E-1,1.1765261E-1,6.538119E-2,-1.0775205E0,9.3439275E-1,9.8371905E-1,1.554306E-1,6.594192E-1,1.161886E-1,7.571941E-2,1.1577334E-1,9.510556E-2,-1.4791146E-1,-8.922956E-2,1.1072915E-1,-7.930666E-2,-1.15827136E-1,2.2056729E-2,1.17374174E-1,1.0731881E-1,-1.2635188E-1,2.421784E-2,-2.264775E-1,-1.8332212E-1,8.321386E-2],"categories":[],"categories_nodes":[],"categories_segments":[],"categories_sizes":[],"default_left":[0,0,0,0,0,0,0,0,0,0,0,0,0,0,0,0,0,0,0,0,0,0,0,0,0,0,0,0,0,0,0,0,0,0,0,0,0,0,0,0,0,0,0,0,0],"id":10,"left_children":[1,3,5,7,9,11,13,-1,15,17,19,21,23,25,27,29,-1,-1,31,33,-1,-1,-1,35,37,39,41,43,-1,-1,-1,-1,-1,-1,-1,-1,-1,-1,-1,-1,-1,-1,-1,-1,-1],"loss_changes":[8.794326E2,1.0622235E2,4.4599466E2,4.0716553E-1,1.7594762E2,4.193227E2,3.066951E1,0E0,1.7326088E0,1.5927913E2,3.3676056E1,1.2168884E-1,3.0736005E2,2.4597628E1,7.086487E0,1.3869095E-1,0E0,0E0,2.4030464E1,1.6428996E2,0E0,0E0,0E0,2.2544434E1,1.3798744E1,9.964958E0,4.7803177E1,3.156161E1,0E0,0E0,0E0,0E0,0E0,0E0,0E0,0E0,0E0,0E0,0E0,0E0,0E0,0E0,0E0,0E0,0E0],"parents":[2147483647,0,0,1,1,2,2,3,3,4,4,5,5,6,6,8,8,9,9,10,10,11,11,12,12,13,13,14,14,15,15,18,18,19,19,23,23,24,24,25,25,26,26,27,27],"right_children":[2,4,6,8,10,12,14,-1,16,18,20,22,24,26,28,30,-1,-1,32,34,-1,-1,-1,36,38,40,42,44,-1,-1,-1,-1,-1,-1,-1,-1,-1,-1,-1,-1,-1,-1,-1,-1,-1],"split_conditions":[-8.695113E-1,-1.3008835E0,1.4827532E0,-1.4009043E0,1.3270653E0,-2.560895E0,5.8855027E-1,1.2144136E-1,1.1992422E0,1.3727041E0,2.5051866E0,2.2506614E0,1.7463597E0,-1.6472198E0,1.3270653E0,1.0489957E0,4.079974E-2,-1.2474263E-1,7.553295E-1,1.0582784E0,1.1978183E-1,1.1765261E-1,6.538119E-2,-5.4901904E-1,2.5051866E0,9.4883144E-1,1.1197507E0,-4.7728235E-1,1.161886E-1,7.571941E-2,1.1577334E-1,9.510556E-2,-1.4791146E-1,-8.922956E-2,1.1072915E-1,-7.930666E-2,-1.15827136E-1,2.2056729E-2,1.17374174E-1,1.0731881E-1,-1.2635188E-1,2.421784E-2,-2.264775E-1,-1.8332212E-1,8.321386E-2],"split_indices":[3,7,5,7,6,6,4,0,1,5,6,0,4,4,6,1,0,0,0,5,0,0,0,3,6,1,3,2,0,0,0,0,0,0,0,0,0,0,0,0,0,0,0,0,0],"split_type":[0,0,0,0,0,0,0,0,0,0,0,0,0,0,0,0,0,0,0,0,0,0,0,0,0,0,0,0,0,0,0,0,0,0,0,0,0,0,0,0,0,0,0,0,0],"sum_hessian":[2.5076184E3,9.113074E2,1.5963109E3,3.7615442E2,5.3515295E2,1.2062446E3,3.9006622E2,3.300344E2,4.612003E1,1.5483803E2,3.8031494E2,1.044999E2,1.1017448E3,2.6589688E2,1.24169334E2,4.0101116E1,6.018913E0,9.0689545E1,6.4148476E1,2.1290315E2,1.674118E2,9.988089E1,4.619012E0,1.0204658E3,8.127894E1,4.1818268E1,2.2407863E2,6.876589E1,5.5403442E1,9.704832E0,3.0396286E1,6.0669888E1,3.4785903E0,5.4521378E1,1.5838177E2,2.2802904E2,7.9243677E2,2.0892237E1,6.0386703E1,4.0719543E1,1.0987208E0,2.1719365E2,6.8849697E0,3.8331404E0,6.4932755E1],"tree_param":{"num_deleted":"0","num_feature":"8","num_nodes":"45","size_leaf_vector":"1"}},{"base_weights":[1.2346832E-3,7.61533E-1,-4.2661196E-1,4.011341E-1,1.0781188E0,-7.0251995E-1,5.066406E-1,-2.7282745E-1,9.185201E-1,1.1283692E0,5.2644664E-1,1.1300038E0,-8.6991465E-1,8.748459E-1,3.1909573E-1,-1.2662786E0,8.5755277E-1,6.449895E-1,1.156528E0,1.0960644E0,1.8617421E0,-1.2588887E-1,9.540138E-1,1.14798844E-1,5.9737213E-2,-1.0185802E0,8.272746E-1,-1.53722E-1,9.39442E-1,1.2059292E-1,8.3561945E-1,-1.2191727E-1,-1.8711206E-1,1.0039075E-1,-1.712883E-1,-9.8200984E-2,1.1111175E-1,1.1719958E-1,6.0571786E-2,1.1181299E-1,-9.6148916E-2,8.28652E-2,3.1550375E-1,-6.938683E-2,1.0337663E-1,-7.022379E-2,-1.1112837E-1,2.0997161E-2,1.14503816E-1,-1.1876889E-1,9.927931E-2,8.9731716E-2,-1.3775441E-2,-1.5396619E-1,9.4207905E-2],"categories":[],"categories_nodes":[],"categories_segments":[],"categories_sizes":[],"default_left":[0,0,0,0,0,0,0,0,0,0,0,0,0,0,0,0,0,0,0,0,0,0,0,0,0,0,0,0,0,0,0,0,0,0,0,0,0,0,0,0,0,0,0,0,0,0,0,0,0,0,0,0,0,0,0],"id":11,"left_children":[1,3,5,7,9,11,13,15,17,19,21,23,25,27,29,31,33,35,37,39,41,-1,43,-1,-1,45,47,-1,49,51,53,-1,-1,-1,-1,-1,-1,-1,-1,-1,-1,-1,-1,-1,-1,-1,-1,-1,-1,-1,-1,-1,-1,-1,-1],"loss_changes":[7.6749744E2,9.650644E1,3.8911758E2,1.3934921E2,1.1928162E1,3.5857074E2,2.3551018E1,1.964968E2,1.3960495E1,7.7469482E0,3.141798E1,2.5305176E-1,2.7049164E2,1.9499496E1,2.3502886E1,3.6904907E-1,3.2564735E1,8.251629E1,3.0848694E-1,1.9150208E1,1.8761192E1,0E0,4.989216E0,0E0,0E0,2.80495E1,1.675174E1,0E0,1.4057236E1,3.372851E1,1.756879E1,0E0,0E0,0E0,0E0,0E0,0E0,0E0,0E0,0E0,0E0,0E0,0E0,0E0,0E0,0E0,0E0,0E0,0E0,0E0,0E0,0E0,0E0,0E0,0E0],"parents":[2147483647,0,0,1,1,2,2,3,3,4,4,5,5,6,6,7,7,8,8,9,9,10,10,11,11,12,12,13,13,14,14,15,15,16,16,17,17,18,18,19,19,20,20,22,22,25,25,26,26,28,28,29,29,30,30],"right_children":[2,4,6,8,10,12,14,16,18,20,22,24,26,28,30,32,34,36,38,40,42,-1,44,-1,-1,46,48,-1,50,52,54,-1,-1,-1,-1,-1,-1,-1,-1,-1,-1,-1,-1,-1,-1,-1,-1,-1,-1,-1,-1,-1,-1,-1,-1],"split_conditions":[-8.695113E-1,7.98585E-1,1.529917E0,1.7149483E0,1.5506501E0,-2.560895E0,-4.606074E-1,1.3569828E0,2.5051866E0,-5.007168E-1,1.6665108E0,1.2996583E0,1.6665108E0,-1.0043726E0,1.8443427E0,1.2312125E0,7.553295E-1,1.0425571E0,1.0098681E0,-7.007585E-1,7.553295E-1,-1.2588887E-1,-2.9375222E-1,1.14798844E-1,5.9737213E-2,-5.4901904E-1,2.5051866E0,-1.53722E-1,1.5613595E0,-1.0856621E0,-1.154619E0,-1.2191727E-1,-1.8711206E-1,1.0039075E-1,-1.712883E-1,-9.8200984E-2,1.1111175E-1,1.1719958E-1,6.0571786E-2,1.1181299E-1,-9.6148916E-2,8.28652E-2,3.1550375E-1,-6.938683E-2,1.0337663E-1,-7.022379E-2,-1.1112837E-1,2.0997161E-2,1.14503816E-1,-1.1876889E-1,9.927931E-2,8.9731716E-2,-1.3775441E-2,-1.5396619E-1,9.4207905E-2],"split_indices":[3,1,5,6,2,6,3,5,6,7,4,7,4,1,5,5,0,5,2,7,0,0,5,0,0,3,6,0,5,2,1,0,0,0,0,0,0,0,0,0,0,0,0,0,0,0,0,0,0,0,0,0,0,0,0],"split_type":[0,0,0,0,0,0,0,0,0,0,0,0,0,0,0,0,0,0,0,0,0,0,0,0,0,0,0,0,0,0,0,0,0,0,0,0,0,0,0,0,0,0,0,0,0,0,0,0,0,0,0,0,0,0,0],"sum_hessian":[2.3574187E3,8.48617E2,1.5088018E3,3.9790826E2,4.507087E2,1.164712E3,3.4408972E2,1.7301141E2,2.2489687E2,4.1212405E2,3.858467E1,9.7005974E1,1.067706E3,1.1488069E2,2.2920905E2,9.2018974E1,8.099244E1,1.06365845E2,1.1853101E2,3.971254E2,1.4998635E1,7.079488E0,3.1505182E1,9.271991E1,4.286066E0,9.8208044E2,8.562563E1,2.4017081E0,1.1247899E2,1.6646799E2,6.274106E1,8.816802E1,3.850948E0,7.7205956E1,3.7864873E0,2.3440626E1,8.2925224E1,1.14196396E2,4.3346157E0,3.9336353E2,3.761887E0,9.250235E0,5.748401E0,1.0989017E0,3.040628E1,2.245157E2,7.5756476E2,2.9662527E1,5.5963108E1,2.231859E0,1.1024713E2,4.0932037E1,1.2553594E2,2.113915E0,6.0627144E1],"tree_param":{"num_deleted":"0","num_feature":"8","num_nodes":"55","size_leaf_vector":"1"}},{"base_weights":[1.1701068E-3,7.3651826E-1,-4.0755293E-1,1.1412511E0,4.56092E-1,-6.988522E-1,4.174506E-1,1.16743945E-1,9.3706036E-1,-3.8831654E-1,8.011907E-1,1.1028948E0,-8.677208E-1,3.085452E-1,1.1097593E0,1.0239092E0,3.1435058E-2,-1.0999855E0,9.0019375E-1,5.369012E-1,1.1434429E-1,1.1217634E-1,5.6663115E-2,-1.0086426E0,8.573545E-1,1.3777871E-1,8.516397E-1,6.0862154E-2,1.14290476E-1,7.1582034E-2,1.1018012E-1,-1.21644735E-1,3.8611334E-2,1.00048E-1,-1.1374239E-1,-1.3519795E-1,9.036484E-2,-1.103816E-1,-7.207531E-2,1.812189E-2,1.1192109E-1,2.5848452E-2,-9.1395654E-2,-1.5069517E-1,9.4621494E-2],"categories":[],"categories_nodes":[],"categories_segments":[],"categories_sizes":[],"default_left":[0,0,0,0,0,0,0,0,0,0,0,0,0,0,0,0,0,0,0,0,0,0,0,0,0,0,0,0,0,0,0,0,0,0,0,0,0,0,0,0,0,0,0,0,0],"id":12,"left_children":[1,3,5,7,9,11,13,-1,15,17,19,21,23,25,27,29,-1,31,33,35,-1,-1,-1,37,39,41,43,-1,-1,-1,-1,-1,-1,-1,-1,-1,-1,-1,-1,-1,-1,-1,-1,-1,-1],"loss_changes":[6.6766516E2,8.955347E1,3.4343253E2,6.394043E-1,1.3740735E2,3.2213623E2,2.779686E1,0E0,1.9449883E0,1.2676963E2,2.9624985E1,2.841339E-1,2.3563043E2,2.9919489E1,1.406517E-1,8.343506E-2,0E0,1.5840637E1,1.1223137E1,1.3320386E2,0E0,0E0,0E0,2.367871E1,1.2805439E1,3.1668102E1,1.8664894E1,0E0,0E0,0E0,0E0,0E0,0E0,0E0,0E0,0E0,0E0,0E0,0E0,0E0,0E0,0E0,0E0,0E0,0E0],"parents":[2147483647,0,0,1,1,2,2,3,3,4,4,5,5,6,6,8,8,9,9,10,10,11,11,12,12,13,13,14,14,15,15,17,17,18,18,19,19,23,23,24,24,25,25,26,26],"right_children":[2,4,6,8,10,12,14,-1,16,18,20,22,24,26,28,30,-1,32,34,36,-1,-1,-1,38,40,42,44,-1,-1,-1,-1,-1,-1,-1,-1,-1,-1,-1,-1,-1,-1,-1,-1,-1,-1],"split_conditions":[-8.695113E-1,-1.3008835E0,1.4827532E0,-1.4009043E0,1.3270653E0,-2.560895E0,1.3270653E0,1.16743945E-1,1.1992422E0,1.5613595E0,2.5051866E0,2.2506614E0,1.7463597E0,1.8443427E0,-9.0080017E-1,1.0489957E0,3.1435058E-2,1.6665108E0,7.553295E-1,1.7788635E-1,1.1434429E-1,1.1217634E-1,5.6663115E-2,4.7875798E-1,2.5051866E0,5.1093894E-1,-1.154619E0,6.0862154E-2,1.14290476E-1,7.1582034E-2,1.1018012E-1,-1.21644735E-1,3.8611334E-2,1.00048E-1,-1.1374239E-1,-1.3519795E-1,9.036484E-2,-1.103816E-1,-7.207531E-2,1.812189E-2,1.1192109E-1,2.5848452E-2,-9.1395654E-2,-1.5069517E-1,9.4621494E-2],"split_indices":[3,7,5,7,6,6,6,0,1,5,6,0,4,5,7,1,0,4,0,5,0,0,0,4,6,6,1,0,0,0,0,0,0,0,0,0,0,0,0,0,0,0,0,0,0],"split_type":[0,0,0,0,0,0,0,0,0,0,0,0,0,0,0,0,0,0,0,0,0,0,0,0,0,0,0,0,0,0,0,0,0,0,0,0,0,0,0,0,0,0,0,0,0],"sum_hessian":[2.2194514E3,7.926195E2,1.4268319E3,3.2315195E2,4.6946756E2,1.0546132E3,3.7221884E2,2.822365E2,4.091543E1,1.3616515E2,3.3330243E2,8.9899315E1,9.647138E2,3.22874E2,4.934486E1,3.5342022E1,5.5734053E0,8.781149E1,4.8353653E1,1.895214E2,1.4378102E2,8.578901E1,4.110308E0,8.922417E2,7.247211E1,2.4659137E2,7.6282616E1,4.2623916E0,4.508247E1,9.188467E0,2.6153555E1,8.159828E1,6.213207E0,4.6570568E1,1.7830853E0,3.0377893E1,1.5914351E2,6.684308E2,2.2381091E2,2.0704178E1,5.176793E1,2.2188074E2,2.471063E1,2.3651347E0,7.391748E1],"tree_param":{"num_deleted":"0","num_feature":"8","num_nodes":"45","size_leaf_vector":"1"}},{"base_weights":[1.3139208E-3,7.1515703E-1,-3.894235E-1,1.1193527E0,4.393437E-1,-6.70235E-1,4.0199184E-1,1.14755034E-1,9.0469843E-1,-6.450076E-1,6.9011056E-1,1.07801E0,-8.3064413E-1,2.393139E-1,7.9474217E-1,9.947051E-1,2.9244224E-2,-1.0568757E0,9.613469E-1,4.32527E-1,1.11996375E-1,1.0984471E-1,5.1290285E-2,-9.7740376E-1,7.6185626E-1,-1.4568388E-1,2.9234126E-1,3.5640977E-2,8.754986E-1,6.801125E-2,1.0773095E-1,7.592579E-3,-1.19824424E-1,5.334085E-2,1.07839026E-1,-8.811869E-2,9.58499E-2,-6.5420195E-2,-1.0764193E-1,3.9617248E-2,1.3271685E-1,3.2549497E-2,-2.2261146E-1,1.1513745E-1,-1.3154809E-1,6.708454E-2,1.1219733E-1],"categories":[],"categories_nodes":[],"categories_segments":[],"categories_sizes":[],"default_left":[0,0,0,0,0,0,0,0,0,0,0,0,0,0,0,0,0,0,0,0,0,0,0,0,0,0,0,0,0,0,0,0,0,0,0,0,0,0,0,0,0,0,0,0,0,0,0],"id":13,"left_children":[1,3,5,7,9,11,13,-1,15,17,19,21,23,25,27,29,-1,31,33,35,-1,-1,-1,37,39,-1,41,43,45,-1,-1,-1,-1,-1,-1,-1,-1,-1,-1,-1,-1,-1,-1,-1,-1,-1,-1],"loss_changes":[5.825945E2,8.1878876E1,3.002575E2,7.718506E-1,1.203144E2,2.8040543E2,2.243673E1,0E0,1.8829117E0,5.6137455E1,3.9211136E1,4.0906525E-1,2.1424353E2,2.307798E1,6.3009186E0,1.502037E-1,0E0,1.0786652E1,3.026123E-1,1.5687138E2,0E0,0E0,0E0,2.6076965E1,1.5525162E1,0E0,2.118518E1,1.8058752E1,3.954506E0,0E0,0E0,0E0,0E0,0E0,0E0,0E0,0E0,0E0,0E0,0E0,0E0,0E0,0E0,0E0,0E0,0E0,0E0],"parents":[2147483647,0,0,1,1,2,2,3,3,4,4,5,5,6,6,8,8,9,9,10,10,11,11,12,12,13,13,14,14,15,15,17,17,18,18,19,19,23,23,24,24,26,26,27,27,28,28],"right_children":[2,4,6,8,10,12,14,-1,16,18,20,22,24,26,28,30,-1,32,34,36,-1,-1,-1,38,40,-1,42,44,46,-1,-1,-1,-1,-1,-1,-1,-1,-1,-1,-1,-1,-1,-1,-1,-1,-1,-1],"split_conditions":[-8.695113E-1,-1.3008835E0,1.4984744E0,-1.4009043E0,1.0880076E0,-2.560895E0,5.8855027E-1,1.14755034E-1,1.1992422E0,1.7657362E0,2.5051866E0,1.2996583E0,1.6665108E0,-6.153278E-1,1.5613595E0,1.0489957E0,2.9244224E-2,-1.4050298E0,8.9957494E-1,1.089721E0,1.11996375E-1,1.0984471E-1,5.1290285E-2,-5.4901904E-1,1.0425571E0,-1.4568388E-1,2.0015557E0,4.037047E-1,1.3270653E0,6.801125E-2,1.0773095E-1,7.592579E-3,-1.19824424E-1,5.334085E-2,1.07839026E-1,-8.811869E-2,9.58499E-2,-6.5420195E-2,-1.0764193E-1,3.9617248E-2,1.3271685E-1,3.2549497E-2,-2.2261146E-1,1.1513745E-1,-1.3154809E-1,6.708454E-2,1.1219733E-1],"split_indices":[3,7,5,7,6,6,4,0,1,5,6,7,4,3,5,1,0,1,7,5,0,0,0,3,5,0,5,6,6,0,0,0,0,0,0,0,0,0,0,0,0,0,0,0,0,0,0],"split_type":[0,0,0,0,0,0,0,0,0,0,0,0,0,0,0,0,0,0,0,0,0,0,0,0,0,0,0,0,0,0,0,0,0,0,0,0,0,0,0,0,0,0,0,0,0,0,0],"sum_hessian":[2.0867139E3,7.378663E2,1.3488475E3,2.980399E2,4.3982642E2,9.957033E2,3.5314423E2,2.5959296E2,3.8446926E1,8.231456E1,3.5751184E2,8.32012E1,9.125021E2,2.508507E2,1.02293526E2,3.297472E1,5.472206E0,6.57885E1,1.6526056E1,2.2480612E2,1.3270572E2,7.93864E1,3.8147995E0,8.3585834E2,7.6643745E1,6.8021245E0,2.4404857E2,9.974615E0,9.231891E1,8.777949E0,2.4196768E1,7.3505626E0,5.843794E1,4.742758E0,1.17832985E1,6.40797E1,1.6072643E2,1.9780371E2,6.380546E2,4.7571774E1,2.9071968E1,2.4173703E2,2.31154E0,5.544171E0,4.430444E0,5.247204E1,3.984687E1],"tree_param":{"num_deleted":"0","num_feature":"8","num_nodes":"47","size_leaf_vector":"1"}},{"base_weights":[1.474728E-3,6.966939E-1,-3.7225303E-1,1.0995309E0,4.2545673E-1,-6.477724E-1,3.7064523E-1,1.1299937E-1,8.735536E-1,-3.7398428E-1,7.5027907E-1,1.0548631E0,-8.022524E-1,7.369754E-1,1.9344425E-1,9.668934E-1,2.7187956E-2,-1.0648553E0,8.3923805E-1,4.9439543E-1,1.0986423E-1,1.0765044E-1,4.839836E-2,-9.4712037E-1,7.12804E-1,-1.4347078E-1,8.085557E-1,1.0298585E-1,1.2545842E-1,6.457941E-2,1.0546153E-1,-1.1848761E-1,3.4279834E-2,9.428527E-2,-1.091755E-1,-1.2813966E-1,8.3815776E-2,-1.05555534E-1,-6.305256E-2,9.68673E-3,1.0841127E-1,-8.983608E-3,9.011822E-2,-1.51960375E-2,6.408726E-2],"categories":[],"categories_nodes":[],"categories_segments":[],"categories_sizes":[],"default_left":[0,0,0,0,0,0,0,0,0,0,0,0,0,0,0,0,0,0,0,0,0,0,0,0,0,0,0,0,0,0,0,0,0,0,0,0,0,0,0,0,0,0,0,0,0],"id":14,"left_children":[1,3,5,7,9,11,13,-1,15,17,19,21,23,25,27,29,-1,31,33,35,-1,-1,-1,37,39,-1,41,43,-1,-1,-1,-1,-1,-1,-1,-1,-1,-1,-1,-1,-1,-1,-1,-1,-1],"loss_changes":[5.099778E2,7.4513306E1,2.615297E2,9.093628E-1,1.0719862E2,2.4586978E2,2.2317177E1,0E0,1.8225231E0,1.0116191E2,2.5584747E1,4.4167328E-1,1.8825507E2,1.8639404E1,2.238486E1,2.1339417E-1,0E0,1.3358101E1,9.8256E0,1.0534085E2,0E0,0E0,0E0,2.6128479E1,1.708397E1,0E0,9.192596E0,2.9884394E1,0E0,0E0,0E0,0E0,0E0,0E0,0E0,0E0,0E0,0E0,0E0,0E0,0E0,0E0,0E0,0E0,0E0],"parents":[2147483647,0,0,1,1,2,2,3,3,4,4,5,5,6,6,8,8,9,9,10,10,11,11,12,12,13,13,14,14,15,15,17,17,18,18,19,19,23,23,24,24,26,26,27,27],"right_children":[2,4,6,8,10,12,14,-1,16,18,20,22,24,26,28,30,-1,32,34,36,-1,-1,-1,38,40,-1,42,44,-1,-1,-1,-1,-1,-1,-1,-1,-1,-1,-1,-1,-1,-1,-1,-1,-1],"split_conditions":[-8.695113E-1,-1.3008835E0,1.4984744E0,-1.4009043E0,1.3270653E0,-2.560895E0,-4.606074E-1,1.1299937E-1,1.1992422E0,1.5613595E0,2.5051866E0,2.2506614E0,1.9350123E0,-1.0043726E0,3.9876037E0,1.0489957E0,2.7187956E-2,1.6665108E0,7.553295E-1,1.7788635E-1,1.0986423E-1,1.0765044E-1,4.839836E-2,4.7875798E-1,2.5051866E0,-1.4347078E-1,1.5613595E0,1.7971789E0,1.2545842E-1,6.457941E-2,1.0546153E-1,-1.1848761E-1,3.4279834E-2,9.428527E-2,-1.091755E-1,-1.2813966E-1,8.3815776E-2,-1.05555534E-1,-6.305256E-2,9.68673E-3,1.0841127E-1,-8.983608E-3,9.011822E-2,-1.51960375E-2,6.408726E-2],"split_indices":[3,7,5,7,6,6,3,0,1,5,6,0,6,1,3,1,0,4,0,5,0,0,0,4,6,0,5,5,0,0,0,0,0,0,0,0,0,0,0,0,0,0,0,0,0],"split_type":[0,0,0,0,0,0,0,0,0,0,0,0,0,0,0,0,0,0,0,0,0,0,0,0,0,0,0,0,0,0,0,0,0,0,0,0,0,0,0,0,0,0,0,0,0],"sum_hessian":[1.9607935E3,6.8523517E2,1.2755583E3,2.7449936E2,4.1073578E2,9.305664E2,3.4499197E2,2.3836615E2,3.6133224E1,1.1862612E2,2.9210965E2,7.692225E1,8.5364417E2,1.1144373E2,2.3354825E2,3.0755077E1,5.3781486E0,7.566237E1,4.296375E1,1.6980312E2,1.2230653E2,7.32594E1,3.6628504E0,7.794855E2,7.415866E1,2.9484072E0,1.0849532E2,2.1621384E2,1.7334408E1,8.393423E0,2.2361654E1,6.986383E1,5.798537E0,4.1261436E1,1.7023116E0,2.7097336E1,1.4270578E2,5.78882E2,2.0060344E2,2.8365723E1,4.5792934E1,1.0143431E1,9.835189E1,1.471741E2,6.9039734E1],"tree_param":{"num_deleted":"0","num_feature":"8","num_nodes":"45","size_leaf_vector":"1"}},{"base_weights":[1.6551492E-3,6.774164E-1,-3.553309E-1,3.3175063E-1,9.914137E-1,-6.324272E-1,3.2832244E-1,-2.776632E-1,8.065127E-1,1.0534796E0,5.200372E-1,1.0331208E0,-7.837821E-1,2.3060693E-1,1.0423715E0,-1.2185631E0,7.429638E-1,5.384435E-1,1.0622895E0,1.0117373E0,2.0133324E0,-1.2869212E-1,9.00218E-1,1.0566147E-1,4.322905E-2,-9.159882E-1,7.470867E-1,7.922735E-2,7.4703604E-1,4.9399402E-2,1.081056E-1,-1.1351343E-1,-1.7081909E-1,8.960606E-2,-1.579796E-1,-8.7024E-2,1.0040348E-1,1.0831988E-1,4.0430125E-2,1.0910144E-1,4.32564E-2,-6.187286E-2,2.3642325E-1,5.1577E-2,1.0865457E-1,-5.7715088E-2,-1.0283102E-1,6.173349E-3,1.0633504E-1,1.9333903E-2,-9.151521E-2,-1.4068133E-1,8.442554E-2],"categories":[],"categories_nodes":[],"categories_segments":[],"categories_sizes":[],"default_left":[0,0,0,0,0,0,0,0,0,0,0,0,0,0,0,0,0,0,0,0,0,0,0,0,0,0,0,0,0,0,0,0,0,0,0,0,0,0,0,0,0,0,0,0,0,0,0,0,0,0,0,0,0],"id":15,"left_children":[1,3,5,7,9,11,13,15,17,19,21,23,25,27,29,31,33,35,37,39,41,-1,43,-1,-1,45,47,49,51,-1,-1,-1,-1,-1,-1,-1,-1,-1,-1,-1,-1,-1,-1,-1,-1,-1,-1,-1,-1,-1,-1,-1,-1],"loss_changes":[4.45323E2,6.892905E1,2.2902953E2,8.8536606E1,9.219757E0,2.1757169E2,2.4113216E1,1.299773E2,1.1209595E1,9.744263E0,2.9200438E1,5.6044006E-1,1.6032999E2,2.4043192E1,3.5123062E-1,9.3322754E-1,2.4563164E1,5.7230137E1,7.576599E-1,1.2558716E1,1.1847977E1,0E0,1.8975163E0,0E0,0E0,2.7058044E1,1.3645359E1,2.735732E1,1.5796928E1,0E0,0E0,0E0,0E0,0E0,0E0,0E0,0E0,0E0,0E0,0E0,0E0,0E0,0E0,0E0,0E0,0E0,0E0,0E0,0E0,0E0,0E0,0E0,0E0],"parents":[2147483647,0,0,1,1,2,2,3,3,4,4,5,5,6,6,7,7,8,8,9,9,10,10,11,11,12,12,13,13,14,14,15,15,16,16,17,17,18,18,19,19,20,20,22,22,25,25,26,26,27,27,28,28],"right_children":[2,4,6,8,10,12,14,16,18,20,22,24,26,28,30,32,34,36,38,40,42,-1,44,-1,-1,46,48,50,52,-1,-1,-1,-1,-1,-1,-1,-1,-1,-1,-1,-1,-1,-1,-1,-1,-1,-1,-1,-1,-1,-1,-1,-1],"split_conditions":[-8.695113E-1,7.98585E-1,1.4827532E0,1.7149483E0,1.4154546E0,-2.560895E0,1.3270653E0,1.3569828E0,2.5051866E0,-5.007168E-1,1.6665108E0,1.2996583E0,1.7463597E0,1.8443427E0,-9.0080017E-1,1.089721E0,7.553295E-1,1.0425571E0,1.0098681E0,-1.3008835E0,1.2337078E0,-1.2869212E-1,2.320991E0,1.0566147E-1,4.322905E-2,-5.4901904E-1,2.5051866E0,5.1093894E-1,-1.154619E0,4.9399402E-2,1.081056E-1,-1.1351343E-1,-1.7081909E-1,8.960606E-2,-1.579796E-1,-8.7024E-2,1.0040348E-1,1.0831988E-1,4.0430125E-2,1.0910144E-1,4.32564E-2,-6.187286E-2,2.3642325E-1,5.1577E-2,1.0865457E-1,-5.7715088E-2,-1.0283102E-1,6.173349E-3,1.0633504E-1,1.9333903E-2,-9.151521E-2,-1.4068133E-1,8.442554E-2],"split_indices":[3,1,5,6,2,6,6,5,6,7,4,7,4,5,7,5,0,5,2,7,6,0,6,0,0,3,6,6,1,0,0,0,0,0,0,0,0,0,0,0,0,0,0,0,0,0,0,0,0,0,0,0,0],"split_type":[0,0,0,0,0,0,0,0,0,0,0,0,0,0,0,0,0,0,0,0,0,0,0,0,0,0,0,0,0,0,0,0,0,0,0,0,0,0,0,0,0,0,0,0,0,0,0,0,0,0,0,0,0],"sum_hessian":[1.8439978E3,6.3709784E2,1.2068999E3,3.0423526E2,3.3286258E2,8.588631E2,3.4803687E2,1.3340683E2,1.7082845E2,2.930429E2,3.9819668E1,7.106125E1,7.878018E2,3.073059E2,4.0730953E1,6.931369E1,6.409313E1,8.492606E1,8.590238E1,2.8279858E2,1.0244331E1,6.507101E0,3.331257E1,6.7657104E1,3.4041476E0,7.255453E2,6.225654E1,2.3853743E2,6.876846E1,3.591328E0,3.7139626E1,6.2057865E1,7.255825E0,6.070612E1,3.3870106E0,2.0880707E1,6.404536E1,8.263037E1,3.2720113E0,2.4797244E2,3.4826134E1,1.1153041E0,9.129027E0,1.2104847E1,2.1207722E1,1.8216222E2,5.4338306E2,2.0035084E1,4.2221455E1,2.1470425E2,2.3833176E1,2.3882122E0,6.638026E1],"tree_param":{"num_deleted":"0","num_feature":"8","num_nodes":"53","size_leaf_vector":"1"}},{"base_weights":[1.7715542E-3,6.5801513E-1,-3.3894035E-1,1.0651491E0,3.9322734E-1,-6.066371E-1,3.1656286E-1,1.1007827E-1,8.1483954E-1,-6.1524993E-1,6.205348E-1,1.012433E0,-7.502075E-1,6.793852E-1,1.471563E-1,9.197103E-1,1.9197432E-2,-1.0188597E0,8.881599E-1,3.4549576E-1,1.0362884E0,1.0374474E-1,4.048868E-2,-8.882824E-1,6.47981E-1,-1.3234131E-1,7.485591E-1,1.0002384E0,3.8050737E-2,1.03008404E-1,6.220271E-2,8.800004E-3,-1.1698144E-1,4.5627404E-2,1.0134913E-1,-3.800709E-2,1.0525163E-1,1.1037489E-1,6.858075E-2,-5.3789284E-2,-1.0081972E-1,2.54367E-2,1.2389443E-1,2.4117403E-2,9.198441E-2,1.1405903E-1,-1.10737346E-1,-4.4945966E-2,4.0579494E-2],"categories":[],"categories_nodes":[],"categories_segments":[],"categories_sizes":[],"default_left":[0,0,0,0,0,0,0,0,0,0,0,0,0,0,0,0,0,0,0,0,0,0,0,0,0,0,0,0,0,0,0,0,0,0,0,0,0,0,0,0,0,0,0,0,0,0,0,0,0],"id":16,"left_children":[1,3,5,7,9,11,13,-1,15,17,19,21,23,25,27,29,-1,31,33,35,37,-1,-1,39,41,-1,43,45,47,-1,-1,-1,-1,-1,-1,-1,-1,-1,-1,-1,-1,-1,-1,-1,-1,-1,-1,-1,-1],"loss_changes":[3.8856253E2,6.3606903E1,2.0092427E2,1.1853638E0,8.323833E1,1.8964221E2,2.0328228E1,0E0,1.9752808E0,4.1551567E1,3.342769E1,5.9225464E-1,1.4477979E2,1.560841E1,2.1168938E1,2.7699852E-1,0E0,9.004379E0,3.338871E-1,9.239177E1,2.0126114E0,0E0,0E0,2.8039612E1,1.543564E1,0E0,8.697296E0,8.893896E0,3.6584896E1,0E0,0E0,0E0,0E0,0E0,0E0,0E0,0E0,0E0,0E0,0E0,0E0,0E0,0E0,0E0,0E0,0E0,0E0,0E0,0E0],"parents":[2147483647,0,0,1,1,2,2,3,3,4,4,5,5,6,6,8,8,9,9,10,10,11,11,12,12,13,13,14,14,15,15,17,17,18,18,19,19,20,20,23,23,24,24,26,26,27,27,28,28],"right_children":[2,4,6,8,10,12,14,-1,16,18,20,22,24,26,28,30,-1,32,34,36,38,-1,-1,40,42,-1,44,46,48,-1,-1,-1,-1,-1,-1,-1,-1,-1,-1,-1,-1,-1,-1,-1,-1,-1,-1,-1,-1],"split_conditions":[-8.695113E-1,-1.3008835E0,1.4984744E0,-1.4009043E0,1.0880076E0,-2.560895E0,-4.606074E-1,1.1007827E-1,1.1992422E0,1.7657362E0,1.3569828E0,2.2506614E0,1.9350123E0,-1.0043726E0,-1.4236509E0,9.325081E-1,1.9197432E-2,-1.4050298E0,8.9957494E-1,2.5051866E0,7.553295E-1,1.0374474E-1,4.048868E-2,-5.4901904E-1,1.0425571E0,-1.3234131E-1,3.5888138E-1,-3.7961805E-1,1.6714085E0,1.03008404E-1,6.220271E-2,8.800004E-3,-1.1698144E-1,4.5627404E-2,1.0134913E-1,-3.800709E-2,1.0525163E-1,1.1037489E-1,6.858075E-2,-5.3789284E-2,-1.0081972E-1,2.54367E-2,1.2389443E-1,2.4117403E-2,9.198441E-2,1.1405903E-1,-1.10737346E-1,-4.4945966E-2,4.0579494E-2],"split_indices":[3,7,5,7,6,6,3,0,1,5,5,0,6,1,2,5,0,1,7,6,0,0,0,3,5,0,6,4,5,0,0,0,0,0,0,0,0,0,0,0,0,0,0,0,0,0,0,0,0],"split_type":[0,0,0,0,0,0,0,0,0,0,0,0,0,0,0,0,0,0,0,0,0,0,0,0,0,0,0,0,0,0,0,0,0,0,0,0,0,0,0,0,0,0,0,0,0,0,0,0,0],"sum_hessian":[1.7358376E3,5.929084E2,1.1429292E3,2.3245941E2,3.6044894E2,8.1157135E2,3.3135785E2,2.0051654E2,3.194287E1,6.5986244E1,2.944627E2,6.5611084E1,7.4596027E2,1.0451184E2,2.2684602E2,2.6931824E1,5.0110445E0,5.227472E1,1.3711524E1,1.783244E2,1.161383E2,6.233691E1,3.2741723E0,6.7924744E2,6.6712845E1,2.8838491E0,1.01628E2,2.4796646E1,2.0204938E2,1.785229E1,9.079535E0,6.3237195E0,4.5951E1,4.1278157E0,9.583709E0,8.8236145E1,9.008826E1,9.5589935E1,2.0548368E1,1.745883E2,5.0465915E2,4.0900974E1,2.581187E1,2.625695E1,7.537105E1,2.3678642E1,1.1180044E0,8.6782074E1,1.15267296E2],"tree_param":{"num_deleted":"0","num_feature":"8","num_nodes":"49","size_leaf_vector":"1"}},{"base_weights":[2.2611413E-3,6.39206E-1,-3.228189E-1,1.0494093E0,3.7869686E-1,-5.8559954E-1,2.9164416E-1,1.0882773E0,7.852431E-1,-3.642569E-1,6.7445165E-1,9.925681E-1,-7.23585E-1,1.4991672E-1,6.821711E-1,1.09362E-1,4.8804175E-2,8.933981E-1,1.778572E-2,-1.0258113E0,7.5409484E-1,4.2637467E-1,1.0456666E0,1.0197357E-1,3.54979E-2,-8.592952E-1,6.128543E-1,-1.446553E-1,2.0128047E-1,4.8508832E-1,1.0081927E0,1.0083174E-1,5.924297E-2,2.9539848E-2,-1.147477E-1,8.580416E-2,-9.807098E-2,-6.8484895E-2,9.1435134E-2,6.4320005E-2,1.07360415E-1,-4.9873084E-2,-9.8731935E-2,-1.7651796E-4,1.03642404E-1,2.3428328E-2,-2.1437462E-1,6.711782E-2,-1.9187897E-1,1.0663457E-1,3.0247713E-2],"categories":[],"categories_nodes":[],"categories_segments":[],"categories_sizes":[],"default_left":[0,0,0,0,0,0,0,0,0,0,0,0,0,0,0,0,0,0,0,0,0,0,0,0,0,0,0,0,0,0,0,0,0,0,0,0,0,0,0,0,0,0,0,0,0,0,0,0,0,0,0],"id":17,"left_children":[1,3,5,7,9,11,13,15,17,19,21,23,25,27,29,-1,-1,31,-1,33,35,37,39,-1,-1,41,43,-1,45,47,49,-1,-1,-1,-1,-1,-1,-1,-1,-1,-1,-1,-1,-1,-1,-1,-1,-1,-1,-1,-1],"loss_changes":[3.3934042E2,5.878174E1,1.753772E2,1.3481598E0,7.501175E1,1.6630008E2,1.7925E1,5.7678223E-2,1.8846302E0,7.293313E1,2.1998962E1,7.04319E-1,1.27450775E2,1.9992561E1,5.0653954E0,0E0,0E0,3.0734444E-1,0E0,1.0257858E1,7.482439E0,8.076179E1,3.99498E-1,0E0,0E0,2.8852905E1,1.6948563E1,0E0,1.8584827E1,2.625129E1,9.760246E-1,0E0,0E0,0E0,0E0,0E0,0E0,0E0,0E0,0E0,0E0,0E0,0E0,0E0,0E0,0E0,0E0,0E0,0E0,0E0,0E0],"parents":[2147483647,0,0,1,1,2,2,3,3,4,4,5,5,6,6,7,7,8,8,9,9,10,10,11,11,12,12,13,13,14,14,17,17,19,19,20,20,21,21,22,22,25,25,26,26,28,28,29,29,30,30],"right_children":[2,4,6,8,10,12,14,16,18,20,22,24,26,28,30,-1,-1,32,-1,34,36,38,40,-1,-1,42,44,-1,46,48,50,-1,-1,-1,-1,-1,-1,-1,-1,-1,-1,-1,-1,-1,-1,-1,-1,-1,-1,-1,-1],"split_conditions":[-8.695113E-1,-1.3008835E0,1.4984744E0,-1.4009043E0,1.3270653E0,-2.560895E0,5.8855027E-1,-8.916142E-1,1.1992422E0,1.5613595E0,2.5051866E0,1.2996583E0,1.6665108E0,-6.153278E-1,1.7657362E0,1.09362E-1,4.8804175E-2,9.325081E-1,1.778572E-2,-1.1008419E0,7.553295E-1,1.0582784E0,2.3951323E0,1.0197357E-1,3.54979E-2,-5.4901904E-1,2.5051866E0,-1.446553E-1,2.0015557E0,-4.2745304E-1,7.553295E-1,1.0083174E-1,5.924297E-2,2.9539848E-2,-1.147477E-1,8.580416E-2,-9.807098E-2,-6.8484895E-2,9.1435134E-2,6.4320005E-2,1.07360415E-1,-4.9873084E-2,-9.8731935E-2,-1.7651796E-4,1.03642404E-1,2.3428328E-2,-2.1437462E-1,6.711782E-2,-1.9187897E-1,1.0663457E-1,3.0247713E-2],"split_indices":[3,7,5,7,6,6,4,3,1,5,6,7,4,3,5,0,0,5,0,7,0,5,4,0,0,3,6,0,5,3,0,0,0,0,0,0,0,0,0,0,0,0,0,0,0,0,0,0,0,0,0],"split_type":[0,0,0,0,0,0,0,0,0,0,0,0,0,0,0,0,0,0,0,0,0,0,0,0,0,0,0,0,0,0,0,0,0,0,0,0,0,0,0,0,0,0,0,0,0,0,0,0,0,0,0],"sum_hessian":[1.6368695E3,5.527918E2,1.0840776E3,2.1353177E2,3.3926004E2,7.593723E2,3.2470538E2,1.83424E2,3.0107784E1,9.653264E1,2.427274E2,6.055856E1,6.988137E2,2.3925899E2,8.5446396E1,1.8099104E2,2.432949E0,2.5157236E1,4.950547E0,6.0705433E1,3.58272E1,1.4678316E2,9.5944244E1,5.7508755E1,3.0498042E0,6.3471765E2,6.409608E1,6.611135E0,2.3264784E2,5.4804516E1,3.0641882E1,1.65049E1,8.652336E0,4.9983764E0,5.5707058E1,3.4278675E1,1.5485275E0,4.4666004E1,1.0211716E2,7.787073E0,8.815717E1,1.6759697E2,4.671207E2,2.655678E1,3.75393E1,2.3030672E2,2.341136E0,5.15358E1,3.2687135E0,2.7837019E1,2.8048618E0],"tree_param":{"num_deleted":"0","num_feature":"8","num_nodes":"51","size_leaf_vector":"1"}},{"base_weights":[2.3581984E-3,6.243326E-1,-3.0769864E-1,2.8617817E-1,9.409018E-1,-5.7094294E-1,2.5584787E-1,-2.3305337E-1,7.9548717E-1,1.007415E0,4.4758326E-1,9.732623E-1,-7.0599425E-1,1.6628815E-1,9.920163E-1,-1.1631381E-1,5.7731605E-1,-8.224279E-2,8.2946223E-1,9.561676E-1,2.0056634E0,-1.2626474E-1,8.211689E-1,1.0022682E0,3.2900136E-2,-8.050713E-1,1.018417E-1,2.0296606E-1,-1.783843E-1,3.855781E-2,1.0381078E-1,7.943522E-2,-2.281779E-1,6.4910196E-2,1.095287E-1,1.0465157E-1,3.6691546E-2,5.258425E-2,2.4600075E-1,4.1295063E-2,1.0380433E-1,5.535528E-2,1.0339353E-1,-4.166458E-2,-9.683959E-2,7.299449E-3,6.762558E-2],"categories":[],"categories_nodes":[],"categories_segments":[],"categories_sizes":[],"default_left":[0,0,0,0,0,0,0,0,0,0,0,0,0,0,0,0,0,0,0,0,0,0,0,0,0,0,0,0,0,0,0,0,0,0,0,0,0,0,0,0,0,0,0,0,0,0,0],"id":18,"left_children":[1,3,5,7,9,11,13,15,17,19,21,23,25,27,29,-1,31,-1,33,35,37,-1,39,41,-1,43,-1,45,-1,-1,-1,-1,-1,-1,-1,-1,-1,-1,-1,-1,-1,-1,-1,-1,-1,-1,-1],"loss_changes":[2.9754745E2,5.4676727E1,1.5289401E2,6.619586E1,8.233261E0,1.4711238E2,2.1494804E1,9.441581E1,7.6213226E0,9.9722595E0,2.2276953E1,7.3332596E-1,1.112287E2,2.1397427E1,5.9007263E-1,0E0,4.3471153E1,0E0,5.240822E0,1.1487015E1,5.7244377E0,0E0,2.0404873E0,1.9423676E-1,0E0,3.8401154E1,0E0,1.7762672E1,0E0,0E0,0E0,0E0,0E0,0E0,0E0,0E0,0E0,0E0,0E0,0E0,0E0,0E0,0E0,0E0,0E0,0E0,0E0],"parents":[2147483647,0,0,1,1,2,2,3,3,4,4,5,5,6,6,7,7,8,8,9,9,10,10,11,11,12,12,13,13,14,14,16,16,18,18,19,19,20,20,22,22,23,23,25,25,27,27],"right_children":[2,4,6,8,10,12,14,16,18,20,22,24,26,28,30,-1,32,-1,34,36,38,-1,40,42,-1,44,-1,46,-1,-1,-1,-1,-1,-1,-1,-1,-1,-1,-1,-1,-1,-1,-1,-1,-1,-1,-1],"split_conditions":[-8.695113E-1,7.98585E-1,1.4827532E0,2.025831E0,1.4154546E0,-2.560895E0,1.3270653E0,1.2783765E0,1.7149483E0,-5.007168E-1,1.6665108E0,2.2506614E0,2.5051866E0,1.5997208E0,-9.0080017E-1,-1.1631381E-1,7.553295E-1,-8.224279E-2,1.1211635E0,-1.3008835E0,7.553295E-1,-1.2626474E-1,2.320991E0,5.031966E0,3.2900136E-2,-5.4901904E-1,1.018417E-1,1.8443427E0,-1.783843E-1,3.855781E-2,1.0381078E-1,7.943522E-2,-2.281779E-1,6.4910196E-2,1.095287E-1,1.0465157E-1,3.6691546E-2,5.258425E-2,2.4600075E-1,4.1295063E-2,1.0380433E-1,5.535528E-2,1.0339353E-1,-4.166458E-2,-9.683959E-2,7.299449E-3,6.762558E-2],"split_indices":[3,1,5,4,2,6,6,5,6,7,4,0,6,7,7,0,0,0,5,7,0,0,6,3,0,3,0,5,0,0,0,0,0,0,0,0,0,0,0,0,0,0,0,0,0,0,0],"split_type":[0,0,0,0,0,0,0,0,0,0,0,0,0,0,0,0,0,0,0,0,0,0,0,0,0,0,0,0,0,0,0,0,0,0,0,0,0,0,0,0,0,0,0,0,0,0,0],"sum_hessian":[1.5409203E3,5.1227747E2,1.0286428E3,2.4861488E2,2.636626E2,7.0112134E2,3.275215E2,1.2337681E2,1.2523807E2,2.314187E2,3.224389E1,5.588732E1,6.45234E2,2.9309094E2,3.443055E1,5.724255E1,6.613426E1,2.0985136E0,1.2313955E2,2.2198064E2,9.438068E0,5.3540196E0,2.688987E1,5.294782E1,2.9395032E0,6.106802E2,3.455385E1,2.8855966E2,4.5312853E0,3.0935376E0,3.1337013E1,6.213938E1,3.994883E0,7.54137E1,4.7725853E1,1.9179703E2,3.0183603E1,2.7238197E0,6.7142487E0,1.03369465E1,1.6552923E1,4.708586E0,4.823923E1,1.8181972E2,4.2886044E2,2.2729556E2,6.1264114E1],"tree_param":{"num_deleted":"0","num_feature":"8","num_nodes":"47","size_leaf_vector":"1"}},{"base_weights":[2.4722256E-3,6.0351354E-1,-2.9194885E-1,1.0201987E0,3.5041848E-1,-5.457352E-1,2.4701832E-1,1.0670651E0,7.182174E-1,-3.5303184E-1,6.263742E-1,9.5457697E-1,-6.7325556E-1,6.0068977E-1,9.200842E-2,1.0733696E-1,4.216781E-2,8.382735E-1,1.0669859E-2,-9.9959654E-1,7.0371974E-1,3.7392575E-1,1.0185709E0,9.860513E-1,2.8007453E-2,-8.0423194E-1,5.6181645E-1,-1.2721746E-1,6.699408E-1,3.2362102E-3,1.1756917E-1,4.7683872E-2,9.588752E-2,-1.12846054E-1,2.9665787E-2,7.9843335E-2,-8.518007E-2,-1.21529125E-1,6.995856E-2,5.8622546E-2,1.050336E-1,1.002497E-1,4.241665E-2,-9.52464E-2,-4.302494E-2,1.226633E-2,1.2076735E-1,-1.9586748E-2,7.728835E-2,-4.267126E-2,3.6265314E-2],"categories":[],"categories_nodes":[],"categories_segments":[],"categories_sizes":[],"default_left":[0,0,0,0,0,0,0,0,0,0,0,0,0,0,0,0,0,0,0,0,0,0,0,0,0,0,0,0,0,0,0,0,0,0,0,0,0,0,0,0,0,0,0,0,0,0,0,0,0,0,0],"id":19,"left_children":[1,3,5,7,9,11,13,15,17,19,21,23,25,27,29,-1,-1,31,-1,33,35,37,39,41,-1,43,45,-1,47,49,-1,-1,-1,-1,-1,-1,-1,-1,-1,-1,-1,-1,-1,-1,-1,-1,-1,-1,-1,-1,-1],"loss_changes":[2.5834244E2,5.026396E1,1.3416803E2,1.7932587E0,5.848521E1,1.2816039E2,1.7180216E1,1.7602539E-1,1.9189835E0,5.8922016E1,2.0998802E1,8.4106827E-1,9.991922E1,1.3254215E1,2.113778E1,0E0,0E0,5.3318405E-1,0E0,9.234089E0,5.531767E0,6.965951E1,5.376282E-1,3.573227E-2,0E0,3.0431793E1,1.6740326E1,0E0,8.428505E0,3.1698843E1,0E0,0E0,0E0,0E0,0E0,0E0,0E0,0E0,0E0,0E0,0E0,0E0,0E0,0E0,0E0,0E0,0E0,0E0,0E0,0E0,0E0],"parents":[2147483647,0,0,1,1,2,2,3,3,4,4,5,5,6,6,7,7,8,8,9,9,10,10,11,11,12,12,13,13,14,14,17,17,19,19,20,20,21,21,22,22,23,23,25,25,26,26,28,28,29,29],"right_children":[2,4,6,8,10,12,14,16,18,20,22,24,26,28,30,-1,-1,32,-1,34,36,38,40,42,-1,44,46,-1,48,50,-1,-1,-1,-1,-1,-1,-1,-1,-1,-1,-1,-1,-1,-1,-1,-1,-1,-1,-1,-1,-1],"split_conditions":[-8.695113E-1,-1.3008835E0,1.4984744E0,-1.4009043E0,1.3270653E0,-2.560895E0,-4.606074E-1,-8.916142E-1,1.1992422E0,1.5613595E0,2.5051866E0,1.2996583E0,1.9350123E0,-1.0043726E0,3.9876037E0,1.0733696E-1,4.216781E-2,1.0489957E0,1.0669859E-2,1.6665108E0,7.553295E-1,1.7788635E-1,2.3951323E0,1.9003923E0,2.8007453E-2,4.7875798E-1,1.0425571E0,-1.2721746E-1,1.5613595E0,4.0148836E-1,1.1756917E-1,4.7683872E-2,9.588752E-2,-1.12846054E-1,2.9665787E-2,7.9843335E-2,-8.518007E-2,-1.21529125E-1,6.995856E-2,5.8622546E-2,1.050336E-1,1.002497E-1,4.241665E-2,-9.52464E-2,-4.302494E-2,1.226633E-2,1.2076735E-1,-1.9586748E-2,7.728835E-2,-4.267126E-2,3.6265314E-2],"split_indices":[3,7,5,7,6,6,3,3,1,5,6,7,6,1,3,0,0,1,0,4,0,5,4,1,0,4,5,0,5,2,0,0,0,0,0,0,0,0,0,0,0,0,0,0,0,0,0,0,0,0,0],"split_type":[0,0,0,0,0,0,0,0,0,0,0,0,0,0,0,0,0,0,0,0,0,0,0,0,0,0,0,0,0,0,0,0,0,0,0,0,0,0,0,0,0,0,0,0,0,0,0,0,0,0,0],"sum_hessian":[1.4579022E3,4.7900177E2,9.789005E2,1.7985881E2,2.9914294E2,6.655139E2,3.133866E2,1.5350226E2,2.6356554E1,8.420728E1,2.1493565E2,5.1626663E1,6.1388727E2,9.4621796E1,2.1876479E2,1.5136055E2,2.1417065E0,2.1721321E1,4.635233E0,5.2276455E1,3.1930828E1,1.319535E2,8.298215E1,4.888371E1,2.742957E0,5.553433E2,5.8543964E1,2.754591E0,9.18672E1,2.0312811E2,1.56366825E1,6.67391E0,1.5047412E1,4.7667183E1,4.609273E0,3.0556965E1,1.3738626E0,2.1976519E1,1.0997699E2,7.0111E0,7.5971054E1,4.673176E1,2.151948E0,3.9659988E2,1.5874342E2,3.5556854E1,2.2987108E1,9.666189E0,8.220102E1,9.240379E1,1.1072431E2],"tree_param":{"num_deleted":"0","num_feature":"8","num_nodes":"51","size_leaf_vector":"1"}},{"base_weights":[2.7399797E-3,5.866469E-1,-2.7644515E-1,1.0067749E0,3.369519E-1,-5.248907E-1,2.2674082E-1,1.057728E0,6.905579E-1,-5.876305E-1,5.3338414E-1,9.3603194E-1,-6.4703435E-1,1.5520392E-1,9.3231505E-1,1.0645602E-1,4.030617E-2,8.1376076E-1,9.85214E-3,-9.932293E-1,8.1347436E-1,2.5710943E-1,9.733895E-1,9.696492E-1,2.5546348E-2,-7.418095E-1,9.963515E-2,1.89874E-1,-1.6240889E-1,3.2175183E-2,1.0151238E0,1.0175969E-1,5.4046083E-2,1.1483406E-2,-1.16113864E-1,3.7811443E-2,9.473751E-2,-3.7425477E-2,9.913936E-2,1.05561435E-1,5.612691E-2,4.8244722E-2,1.00625515E-1,-3.3336136E-2,-9.3264125E-2,1.3288309E-2,1.13456726E-1,1.0526381E-1,4.393518E-2],"categories":[],"categories_nodes":[],"categories_segments":[],"categories_sizes":[],"default_left":[0,0,0,0,0,0,0,0,0,0,0,0,0,0,0,0,0,0,0,0,0,0,0,0,0,0,0,0,0,0,0,0,0,0,0,0,0,0,0,0,0,0,0,0,0,0,0,0,0],"id":20,"left_children":[1,3,5,7,9,11,13,15,17,19,21,23,25,27,29,-1,-1,31,-1,33,35,37,39,41,-1,43,-1,45,-1,-1,47,-1,-1,-1,-1,-1,-1,-1,-1,-1,-1,-1,-1,-1,-1,-1,-1,-1,-1],"loss_changes":[2.2513689E2,4.65244E1,1.1692365E2,1.9446411E0,5.1475464E1,1.1227431E2,1.5478873E1,2.0205688E-1,1.8105087E0,2.9129997E1,2.8057236E1,8.6632156E-1,9.077998E1,1.7719194E1,1.1039429E0,0E0,0E0,6.3762665E-1,0E0,7.4079514E0,3.2605648E-1,6.731756E1,2.4389496E0,3.3569336E-1,0E0,4.2337036E1,0E0,1.4802458E1,0E0,0E0,6.565666E-2,0E0,0E0,0E0,0E0,0E0,0E0,0E0,0E0,0E0,0E0,0E0,0E0,0E0,0E0,0E0,0E0,0E0,0E0],"parents":[2147483647,0,0,1,1,2,2,3,3,4,4,5,5,6,6,7,7,8,8,9,9,10,10,11,11,12,12,13,13,14,14,17,17,19,19,20,20,21,21,22,22,23,23,25,25,27,27,30,30],"right_children":[2,4,6,8,10,12,14,16,18,20,22,24,26,28,30,-1,-1,32,-1,34,36,38,40,42,-1,44,-1,46,-1,-1,48,-1,-1,-1,-1,-1,-1,-1,-1,-1,-1,-1,-1,-1,-1,-1,-1,-1,-1],"split_conditions":[-8.695113E-1,-1.3008835E0,1.4984744E0,-1.4009043E0,1.0880076E0,-2.560895E0,1.3270653E0,-8.916142E-1,1.1992422E0,1.7657362E0,1.3569828E0,2.2506614E0,2.5051866E0,1.5997208E0,1.5770808E0,1.0645602E-1,4.030617E-2,-1.079489E0,9.85214E-3,-1.4050298E0,8.9957494E-1,2.5051866E0,7.553295E-1,5.031966E0,2.5546348E-2,-5.4901904E-1,9.963515E-2,3.9876037E0,-1.6240889E-1,3.2175183E-2,7.553295E-1,1.0175969E-1,5.4046083E-2,1.1483406E-2,-1.16113864E-1,3.7811443E-2,9.473751E-2,-3.7425477E-2,9.913936E-2,1.05561435E-1,5.612691E-2,4.8244722E-2,1.00625515E-1,-3.3336136E-2,-9.3264125E-2,1.3288309E-2,1.13456726E-1,1.0526381E-1,4.393518E-2],"split_indices":[3,7,5,7,6,6,6,3,1,5,5,0,6,7,5,0,0,3,0,1,7,6,0,3,0,3,0,3,0,0,0,0,0,0,0,0,0,0,0,0,0,0,0,0,0,0,0,0,0],"split_type":[0,0,0,0,0,0,0,0,0,0,0,0,0,0,0,0,0,0,0,0,0,0,0,0,0,0,0,0,0,0,0,0,0,0,0,0,0,0,0,0,0,0,0,0,0,0,0,0,0],"sum_hessian":[1.3790593E3,4.4572925E2,9.333301E2,1.6502762E2,2.8070163E2,6.247967E2,3.085334E2,1.401068E2,2.492083E1,4.883759E1,2.3186404E2,4.7692924E1,5.7710376E2,2.8123904E2,2.729435E1,1.380401E2,2.066691E0,2.0318115E1,4.6027136E0,3.8099472E1,1.0738115E1,1.4340555E2,8.8458496E1,4.5043213E1,2.6497142E0,5.461553E2,3.094852E1,2.7673996E2,4.499078E0,3.8432083E0,2.3451141E1,1.0078137E1,1.0239978E1,5.055227E0,3.3044247E1,3.4252434E0,7.312872E0,7.737018E1,6.603537E1,7.244342E1,1.6015076E1,4.138731E0,4.090448E1,1.7478972E2,3.7136554E2,2.620706E2,1.466938E1,2.1239098E1,2.2120442E0],"tree_param":{"num_deleted":"0","num_feature":"8","num_nodes":"49","size_leaf_vector":"1"}},{"base_weights":[3.4418907E-3,5.696461E-1,-2.6121068E-1,2.4008715E-1,8.91011E-1,-5.62477E-1,1.3367112E-1,-2.5194272E-1,7.214806E-1,1.0491546E0,6.3487935E-1,9.1147727E-1,-6.989059E-1,3.5524383E0,6.875001E-2,-1.1472633E-1,4.9585363E-1,4.995476E-1,1.0674452E-1,1.0565752E-1,3.851131E-2,5.5779863E-2,8.748568E-1,9.490692E-1,2.084266E-2,-7.9682213E-1,9.6892916E-2,-6.324275E-3,6.858736E-1,-6.2239982E-2,9.8933315E-1,7.247355E-2,-2.1965094E-1,-5.995065E-2,9.461387E-2,6.86699E-2,-1.21445574E-1,1.9800203E-1,6.309367E-2,9.690278E-2,3.3574734E-2,-1.118665E-1,-5.489958E-2,-7.013264E-2,6.81225E-2,-1.0872262E-1,1.4093292E-2,1.0945802E-1,2.7032873E-2],"categories":[],"categories_nodes":[],"categories_segments":[],"categories_sizes":[],"default_left":[0,0,0,0,0,0,0,0,0,0,0,0,0,0,0,0,0,0,0,0,0,0,0,0,0,0,0,0,0,0,0,0,0,0,0,0,0,0,0,0,0,0,0,0,0,0,0,0,0],"id":21,"left_children":[1,3,5,7,9,11,13,15,17,19,21,23,25,27,29,-1,31,33,-1,-1,-1,35,37,39,-1,41,-1,43,-1,45,47,-1,-1,-1,-1,-1,-1,-1,-1,-1,-1,-1,-1,-1,-1,-1,-1,-1,-1],"loss_changes":[1.9622241E2,4.3961334E1,1.0623702E2,4.9282112E1,7.8728943E0,1.0246597E2,8.5649765E1,6.97013E1,7.5318184E0,2.277832E-1,1.1486637E1,9.47464E-1,7.655531E1,8.466959E1,4.5981724E1,0E0,3.6693832E1,3.2898125E1,0E0,0E0,0E0,2.1180069E1,1.4552628E1,1.7473602E-1,0E0,3.439038E1,0E0,2.6103733E0,0E0,6.977312E1,3.298153E0,0E0,0E0,0E0,0E0,0E0,0E0,0E0,0E0,0E0,0E0,0E0,0E0,0E0,0E0,0E0,0E0,0E0,0E0],"parents":[2147483647,0,0,1,1,2,2,3,3,4,4,5,5,6,6,7,7,8,8,9,9,10,10,11,11,12,12,13,13,14,14,16,16,17,17,21,21,22,22,23,23,25,25,27,27,29,29,30,30],"right_children":[2,4,6,8,10,12,14,16,18,20,22,24,26,28,30,-1,32,34,-1,-1,-1,36,38,40,-1,42,-1,44,-1,46,48,-1,-1,-1,-1,-1,-1,-1,-1,-1,-1,-1,-1,-1,-1,-1,-1,-1,-1],"split_conditions":[-8.695113E-1,7.98585E-1,1.1211635E0,2.025831E0,-1.4009043E0,-2.560895E0,1.1368848E0,1.2783765E0,1.1211635E0,-8.916142E-1,1.2796737E0,1.2996583E0,2.5051866E0,7.553295E-1,1.3499165E0,-1.1472633E-1,7.553295E-1,2.5051866E0,1.0674452E-1,1.0565752E-1,3.851131E-2,6.7187935E-1,1.4070019E0,6.6524625E-1,2.084266E-2,-1.3929361E-1,9.6892916E-2,1.1860595E0,6.858736E-1,1.4984744E0,7.553295E-1,7.247355E-2,-2.1965094E-1,-5.995065E-2,9.461387E-2,6.86699E-2,-1.21445574E-1,1.9800203E-1,6.309367E-2,9.690278E-2,3.3574734E-2,-1.118665E-1,-5.489958E-2,-7.013264E-2,6.81225E-2,-1.0872262E-1,1.4093292E-2,1.0945802E-1,2.7032873E-2],"split_indices":[3,1,5,4,7,6,5,5,5,3,6,7,6,0,6,0,0,6,0,0,0,2,4,5,0,2,0,3,0,5,0,0,0,0,0,0,0,0,0,0,0,0,0,0,0,0,0,0,0],"split_type":[0,0,0,0,0,0,0,0,0,0,0,0,0,0,0,0,0,0,0,0,0,0,0,0,0,0,0,0,0,0,0,0,0,0,0,0,0,0,0,0,0,0,0,0,0,0,0,0,0],"sum_hessian":[1.3074886E3,4.161069E2,8.913818E2,2.0629694E2,2.0980997E2,5.05385E2,3.8599677E2,1.02257095E2,1.0403984E2,1.2780375E2,8.200621E1,4.2334064E1,4.6305096E2,6.192237E0,3.7980453E2,4.6294952E1,5.5962143E1,6.487016E1,3.9169674E1,1.2580677E2,1.99698E0,2.4387695E1,5.761852E1,3.9853195E1,2.48087E0,4.3786667E2,2.5184282E1,3.4629488E0,2.7292879E0,3.3331015E2,4.6494385E1,5.2251026E1,3.711119E0,1.8644333E1,4.622583E1,1.6601307E1,7.786387E0,9.130802E0,4.8487717E1,3.8035484E1,1.8177123E0,1.8895885E2,2.4890782E2,1.7121757E0,1.7507732E0,5.441928E1,2.7889087E2,4.010195E1,6.3924336E0],"tree_param":{"num_deleted":"0","num_feature":"8","num_nodes":"49","size_leaf_vector":"1"}},{"base_weights":[3.4234016E-3,5.529095E-1,-2.470404E-1,9.8138833E-1,3.0976048E-1,-5.4264164E-1,1.2256214E-1,1.0412275E0,6.4400023E-1,-3.491739E-1,5.5798024E-1,8.9257044E-1,-6.7395085E-1,2.5618587E0,6.323258E-2,1.04930185E-1,3.6782395E-2,7.750377E-1,5.943788E-3,-9.731844E-1,6.2332726E-1,3.158345E-1,9.767532E-1,9.326544E-1,1.8552912E-2,-7.6786405E-1,9.515788E-2,4.1016026E0,-8.231942E-2,-5.8103852E-2,9.527794E-1,9.330569E-2,3.8594205E-2,-1.1082383E-1,2.4943903E-2,3.3683032E-3,9.48007E-2,-6.267994E-2,8.077176E-2,4.6495773E-2,1.0171049E-1,4.1273523E-2,9.76397E-2,-3.3841085E-2,-9.6899256E-2,3.736863E-2,5.9318095E-1,-1.07506774E-1,1.2763171E-2,1.0615224E-1,2.502988E-2],"categories":[],"categories_nodes":[],"categories_segments":[],"categories_sizes":[],"default_left":[0,0,0,0,0,0,0,0,0,0,0,0,0,0,0,0,0,0,0,0,0,0,0,0,0,0,0,0,0,0,0,0,0,0,0,0,0,0,0,0,0,0,0,0,0,0,0,0,0,0,0],"id":22,"left_children":[1,3,5,7,9,11,13,15,17,19,21,23,25,27,29,-1,-1,31,-1,33,35,37,39,41,-1,43,-1,45,-1,47,49,-1,-1,-1,-1,-1,-1,-1,-1,-1,-1,-1,-1,-1,-1,-1,-1,-1,-1,-1,-1],"loss_changes":[1.7087671E2,4.019677E1,9.324617E1,2.1614532E0,4.0997803E1,8.99404E1,5.4804874E1,2.5304413E-1,1.773366E0,4.2403732E1,1.8105637E1,9.653282E-1,6.7120224E1,5.0250046E1,4.018709E1,0E0,0E0,8.2777786E-1,0E0,7.2684937E0,5.2385893E0,5.4541122E1,8.9120483E-1,4.5584488E-1,0E0,3.5231842E1,0E0,4.1099144E1,0E0,6.2116352E1,3.1478996E0,0E0,0E0,0E0,0E0,0E0,0E0,0E0,0E0,0E0,0E0,0E0,0E0,0E0,0E0,0E0,0E0,0E0,0E0,0E0,0E0],"parents":[2147483647,0,0,1,1,2,2,3,3,4,4,5,5,6,6,7,7,8,8,9,9,10,10,11,11,12,12,13,13,14,14,17,17,19,19,20,20,21,21,22,22,23,23,25,25,27,27,29,29,30,30],"right_children":[2,4,6,8,10,12,14,16,18,20,22,24,26,28,30,-1,-1,32,-1,34,36,38,40,42,-1,44,-1,46,-1,48,50,-1,-1,-1,-1,-1,-1,-1,-1,-1,-1,-1,-1,-1,-1,-1,-1,-1,-1,-1,-1],"split_conditions":[-8.695113E-1,-1.3008835E0,1.1211635E0,-1.4009043E0,1.3270653E0,-2.560895E0,1.1368848E0,-8.916142E-1,1.1992422E0,1.5613595E0,2.5051866E0,2.2506614E0,2.5051866E0,-1.0993515E0,1.3499165E0,1.04930185E-1,3.6782395E-2,9.325081E-1,5.943788E-3,1.6665108E0,8.490084E-1,1.0582784E0,2.3951323E0,5.031966E0,1.8552912E-2,-5.4901904E-1,9.515788E-2,-1.1703852E0,-8.231942E-2,1.4984744E0,7.553295E-1,9.330569E-2,3.8594205E-2,-1.1082383E-1,2.4943903E-2,3.3683032E-3,9.48007E-2,-6.267994E-2,8.077176E-2,4.6495773E-2,1.0171049E-1,4.1273523E-2,9.76397E-2,-3.3841085E-2,-9.6899256E-2,3.736863E-2,5.9318095E-1,-1.07506774E-1,1.2763171E-2,1.0615224E-1,2.502988E-2],"split_indices":[3,7,5,7,6,6,5,3,1,5,6,0,6,6,6,0,0,5,0,4,6,5,4,3,0,3,0,6,0,5,0,0,0,0,0,0,0,0,0,0,0,0,0,0,0,0,0,0,0,0,0],"split_type":[0,0,0,0,0,0,0,0,0,0,0,0,0,0,0,0,0,0,0,0,0,0,0,0,0,0,0,0,0,0,0,0,0,0,0,0,0,0,0,0,0,0,0,0,0,0,0,0,0,0,0],"sum_hessian":[1.2396061E3,3.877418E2,8.518643E2,1.3927475E2,2.4846703E2,4.7305533E2,3.78809E2,1.1652223E2,2.2752523E1,6.787543E1,1.805916E2,3.916658E1,4.3388873E2,7.99321E0,3.708158E2,1.1459006E2,1.9321755E0,1.8320007E1,4.432516E0,4.1345295E1,2.6530132E1,1.1553839E2,6.5053215E1,3.676328E1,2.4032984E0,4.1068924E2,2.3199501E1,5.3486247E0,2.6445851E0,3.271292E2,4.368657E1,1.2034536E1,6.28547E0,3.7316757E1,4.0285397E0,9.812889E0,1.6717243E1,3.9523033E1,7.601536E1,5.669349E0,5.9383865E1,3.662835E0,3.3100445E1,1.3184784E2,2.788414E2,2.1577399E0,3.1908846E0,4.977985E1,2.7734937E2,3.7387875E1,6.2986946E0],"tree_param":{"num_deleted":"0","num_feature":"8","num_nodes":"51","size_leaf_vector":"1"}},{"base_weights":[3.746803E-3,-3.672748E-1,3.4897822E-1,9.513985E-1,-4.8803458E-1,-1.4754212E-1,5.879845E-1,9.884152E-1,1.4058681E-2,-1.0250098E0,-1.13357864E-1,-7.0026994E-1,6.831667E-1,4.533151E-1,5.363825E-1,1.0084492E0,2.7079312E-2,4.4372678E-1,-1.06534734E-1,7.290506E-1,-1.989331E-1,-1.046783E0,6.6873085E-1,-2.346587E-1,7.8773314E-1,6.339485E-1,-4.324494E-1,1.02789156E-1,4.5013707E-2,8.447868E-2,-6.0738213E-2,-1.0452061E-1,-4.0744897E-3,-3.8761084E-3,-1.1667664E-1,8.160224E-2,-1.3427688E-1,-1.4310886E-1,5.4696914E-2,5.2298307E-2,9.711654E-2,5.1698174E-2,4.2488942E-1,-8.374226E-2,9.9287346E-2],"categories":[],"categories_nodes":[],"categories_segments":[],"categories_sizes":[],"default_left":[0,0,0,0,0,0,0,0,0,0,0,0,0,0,0,0,0,0,0,0,0,0,0,0,0,0,0,0,0,0,0,0,0,0,0,0,0,0,0,0,0,0,0,0,0],"id":23,"left_children":[1,3,5,7,9,11,13,15,-1,17,19,21,23,-1,25,27,-1,29,-1,-1,31,33,35,37,39,41,43,-1,-1,-1,-1,-1,-1,-1,-1,-1,-1,-1,-1,-1,-1,-1,-1,-1,-1],"loss_changes":[1.5074861E2,9.079828E1,7.24335E1,1.2995796E0,1.0457256E2,9.180404E1,8.138991E1,3.8353348E-1,0E0,1.3135208E1,1.9634998E2,5.7590214E1,7.860134E0,0E0,3.8798584E1,1.5609741E-2,0E0,3.2190692E0,0E0,0E0,4.079747E1,1.1576729E1,8.45342E0,9.15228E0,2.9897995E0,1.5453566E2,2.2697865E1,0E0,0E0,0E0,0E0,0E0,0E0,0E0,0E0,0E0,0E0,0E0,0E0,0E0,0E0,0E0,0E0,0E0,0E0],"parents":[2147483647,0,0,1,1,2,2,3,3,4,4,5,5,6,6,7,7,9,9,10,10,11,11,12,12,14,14,15,15,17,17,20,20,21,21,22,22,23,23,24,24,25,25,26,26],"right_children":[2,4,6,8,10,12,14,16,-1,18,20,22,24,-1,26,28,-1,30,-1,-1,32,34,36,38,40,42,44,-1,-1,-1,-1,-1,-1,-1,-1,-1,-1,-1,-1,-1,-1,-1,-1,-1,-1],"split_conditions":[4.7875798E-1,-2.560895E0,-1.3929361E-1,1.2996583E0,5.866398E-1,1.9350123E0,4.8873907E-1,1.9003923E0,1.4058681E-2,-8.916142E-1,6.023611E-1,1.7028512E0,1.8661331E0,4.533151E-1,-5.3244185E-1,2.2506614E0,2.7079312E-2,-1.4009043E0,-1.06534734E-1,7.290506E-1,1.1211635E0,4.037047E-1,7.553295E-1,9.953933E-1,2.5051866E0,-5.600705E-1,1.8286214E0,1.02789156E-1,4.5013707E-2,8.447868E-2,-6.0738213E-2,-1.0452061E-1,-4.0744897E-3,-3.8761084E-3,-1.1667664E-1,8.160224E-2,-1.3427688E-1,-1.4310886E-1,5.4696914E-2,5.2298307E-2,9.711654E-2,5.1698174E-2,4.2488942E-1,-8.374226E-2,9.9287346E-2],"split_indices":[4,6,2,7,5,6,4,1,0,3,5,5,4,0,3,0,0,7,0,0,5,6,0,5,6,3,5,0,0,0,0,0,0,0,0,0,0,0,0,0,0,0,0,0,0],"split_type":[0,0,0,0,0,0,0,0,0,0,0,0,0,0,0,0,0,0,0,0,0,0,0,0,0,0,0,0,0,0,0,0,0,0,0,0,0,0,0,0,0,0,0,0,0],"sum_hessian":[1.1749109E3,5.6627216E2,6.086388E2,4.6929768E1,5.1934235E2,1.9789897E2,4.1073984E2,4.4671307E1,2.2584624E0,2.127294E2,3.0661298E2,1.189262E2,7.897277E1,4.1817417E0,4.0655807E2,4.3063816E1,1.6074886E0,5.4189568E0,2.0731044E2,2.5413845E0,3.040716E2,9.509237E1,2.3833832E1,7.949798E0,7.102297E1,3.6967563E2,3.6882442E1,4.0801888E1,2.261929E0,4.064428E0,1.3545287E0,4.7003822E1,2.5706778E2,1.0255491E1,8.483688E1,2.2761452E1,1.0723802E0,2.8130233E0,5.136775E0,3.0644487E1,4.0378483E1,3.5919635E2,1.0479303E1,2.9043E1,7.8394427E0],"tree_param":{"num_deleted":"0","num_feature":"8","num_nodes":"45","size_leaf_vector":"1"}},{"base_weights":[2.6995114E-3,5.1917845E-1,-2.2556758E-1,1.030212E0,3.0527952E-1,-5.154561E-1,1.0446037E-1,1.0394702E-1,3.2759104E-2,8.973947E-2,9.644125E-1,8.53468E-1,-6.36459E-1,2.045259E0,4.944729E-2,-4.972422E-1,6.652617E-1,3.9745966E-1,1.00899376E-1,8.993144E-1,1.3197198E-2,-9.3935305E-1,-1.5456465E-1,3.0476012E0,-7.945428E-2,-5.9538625E-2,9.062528E-1,-1.0721009E-1,9.181625E-3,7.831085E-2,-1.493814E-2,8.079886E-2,-3.292583E-2,9.242719E-2,2.2753237E-2,-3.8655274E-2,-1.05943315E-1,2.2325373E-1,-4.578853E-2,3.174169E-2,3.9352387E-1,-1.063689E-1,1.0944238E-2,1.02057494E-1,1.881729E-2],"categories":[],"categories_nodes":[],"categories_segments":[],"categories_sizes":[],"default_left":[0,0,0,0,0,0,0,0,0,0,0,0,0,0,0,0,0,0,0,0,0,0,0,0,0,0,0,0,0,0,0,0,0,0,0,0,0,0,0,0,0,0,0,0,0],"id":24,"left_children":[1,3,5,7,9,11,13,-1,-1,15,17,19,21,23,25,27,29,31,-1,33,-1,35,37,39,-1,41,43,-1,-1,-1,-1,-1,-1,-1,-1,-1,-1,-1,-1,-1,-1,-1,-1,-1,-1],"loss_changes":[1.338323E2,3.7718117E1,7.537134E1,3.2456207E-1,3.4961212E1,6.999463E1,3.9293606E1,0E0,0E0,6.3505226E1,1.132904E0,1.0218029E0,5.6167786E1,3.1300499E1,3.365432E1,3.164253E1,9.223091E0,2.0781994E0,0E0,3.3034515E-1,0E0,1.5302887E1,1.09703384E2,1.7424805E1,0E0,5.4441643E1,3.1463661E0,0E0,0E0,0E0,0E0,0E0,0E0,0E0,0E0,0E0,0E0,0E0,0E0,0E0,0E0,0E0,0E0,0E0,0E0],"parents":[2147483647,0,0,1,1,2,2,3,3,4,4,5,5,6,6,9,9,10,10,11,11,12,12,13,13,14,14,15,15,16,16,17,17,19,19,21,21,22,22,23,23,25,25,26,26],"right_children":[2,4,6,8,10,12,14,-1,-1,16,18,20,22,24,26,28,30,32,-1,34,-1,36,38,40,-1,42,44,-1,-1,-1,-1,-1,-1,-1,-1,-1,-1,-1,-1,-1,-1,-1,-1,-1,-1],"split_conditions":[-8.695113E-1,-1.4009043E0,1.1211635E0,-8.916142E-1,2.5051866E0,-2.560895E0,1.1368848E0,1.0394702E-1,3.2759104E-2,1.2783765E0,2.3951323E0,1.2996583E0,4.7875798E-1,-1.0993515E0,1.3499165E0,3.9792776E-1,7.553295E-1,-9.697676E-1,1.00899376E-1,6.6524625E-1,1.3197198E-2,-1.1307181E0,5.286636E-1,-1.1703852E0,-7.945428E-2,1.4984744E0,7.553295E-1,-1.0721009E-1,9.181625E-3,7.831085E-2,-1.493814E-2,8.079886E-2,-3.292583E-2,9.242719E-2,2.2753237E-2,-3.8655274E-2,-1.05943315E-1,2.2325373E-1,-4.578853E-2,3.174169E-2,3.9352387E-1,-1.063689E-1,1.0944238E-2,1.02057494E-1,1.881729E-2],"split_indices":[3,7,5,3,6,6,5,0,0,5,4,7,4,6,6,1,0,5,0,5,0,6,4,6,0,5,0,0,0,0,0,0,0,0,0,0,0,0,0,0,0,0,0,0,0],"split_type":[0,0,0,0,0,0,0,0,0,0,0,0,0,0,0,0,0,0,0,0,0,0,0,0,0,0,0,0,0,0,0,0,0,0,0,0,0,0,0,0,0,0,0,0,0],"sum_hessian":[1.1331877E3,3.4693512E2,7.8625256E2,1.01240776E2,2.4569434E2,4.1828198E2,3.6797058E2,9.9450935E1,1.789838E0,1.8600563E2,5.9688705E1,3.347872E1,3.8480325E2,9.145628E0,3.5882495E2,9.215337E1,9.3852264E1,5.074178E0,5.4614525E1,3.1246737E1,2.231986E0,2.3570308E2,1.4910019E2,6.7056236E0,2.4400046E0,3.1915842E2,3.9666534E1,4.622381E1,4.5929565E1,8.202516E1,1.18271E1,3.1710143E0,1.9031641E0,2.9765078E1,1.4816581E0,4.2815716E1,1.9288736E2,1.6092619E1,1.3300757E2,1.9783218E0,4.7273016E0,4.520977E1,2.7394867E2,3.385533E1,5.811204E0],"tree_param":{"num_deleted":"0","num_feature":"8","num_nodes":"45","size_leaf_vector":"1"}},{"base_weights":[2.5670684E-3,5.012506E-1,-2.1174426E-1,1.0234685E0,2.9117692E-1,-4.9140304E-1,9.589957E-2,1.0335703E-1,3.1252015E-2,8.421335E-2,9.5021313E-1,8.337461E-1,-6.058331E-1,1.7066184E0,4.5262482E-2,-4.9237385E-1,6.1445844E-1,3.774295E-1,9.9800706E-2,8.8299745E-1,9.326846E-3,-9.2296076E-1,-1.4051664E-1,2.4460516E0,-7.735374E-2,-5.540354E-2,8.7090474E-1,-1.162851E-1,1.0201488E-2,7.5819455E-2,-2.9656634E-2,7.902196E-2,-3.0167475E-2,2.9049946E-2,9.379222E-2,-3.6131233E-2,-1.0524719E-1,1.736424E-1,-4.2195555E-2,2.99323E-2,3.019457E-1,-1.05329216E-1,9.899249E-3,-1.2353519E-2,9.462105E-2],"categories":[],"categories_nodes":[],"categories_segments":[],"categories_sizes":[],"default_left":[0,0,0,0,0,0,0,0,0,0,0,0,0,0,0,0,0,0,0,0,0,0,0,0,0,0,0,0,0,0,0,0,0,0,0,0,0,0,0,0,0,0,0,0,0],"id":25,"left_children":[1,3,5,7,9,11,13,-1,-1,15,17,19,21,23,25,27,29,31,-1,33,-1,35,37,39,-1,41,43,-1,-1,-1,-1,-1,-1,-1,-1,-1,-1,-1,-1,-1,-1,-1,-1,-1,-1],"loss_changes":[1.16032555E2,3.550255E1,6.537971E1,3.4648132E-1,3.1852823E1,6.0847496E1,2.9483261E1,0E0,0E0,5.5109287E1,1.1523552E0,1.0865841E0,5.400995E1,2.2100655E1,2.9338503E1,3.4564728E1,1.2511559E1,1.8950698E0,0E0,7.017193E-1,0E0,1.5477524E1,7.990619E1,9.840939E0,0E0,4.8644386E1,2.9893932E0,0E0,0E0,0E0,0E0,0E0,0E0,0E0,0E0,0E0,0E0,0E0,0E0,0E0,0E0,0E0,0E0,0E0,0E0],"parents":[2147483647,0,0,1,1,2,2,3,3,4,4,5,5,6,6,9,9,10,10,11,11,12,12,13,13,14,14,15,15,16,16,17,17,19,19,21,21,22,22,23,23,25,25,26,26],"right_children":[2,4,6,8,10,12,14,-1,-1,16,18,20,22,24,26,28,30,32,-1,34,-1,36,38,40,-1,42,44,-1,-1,-1,-1,-1,-1,-1,-1,-1,-1,-1,-1,-1,-1,-1,-1,-1,-1],"split_conditions":[-8.695113E-1,-1.4009043E0,1.1211635E0,-8.916142E-1,2.5051866E0,-2.560895E0,1.1368848E0,1.0335703E-1,3.1252015E-2,1.2469338E0,2.3951323E0,2.2506614E0,4.7875798E-1,-1.0993515E0,1.3499165E0,3.9792776E-1,7.553295E-1,-9.697676E-1,9.9800706E-2,5.031966E0,9.326846E-3,-1.1307181E0,5.286636E-1,-1.1703852E0,-7.735374E-2,1.4984744E0,-8.0077934E-1,-1.162851E-1,1.0201488E-2,7.5819455E-2,-2.9656634E-2,7.902196E-2,-3.0167475E-2,2.9049946E-2,9.379222E-2,-3.6131233E-2,-1.0524719E-1,1.736424E-1,-4.2195555E-2,2.99323E-2,3.019457E-1,-1.05329216E-1,9.899249E-3,-1.2353519E-2,9.462105E-2],"split_indices":[3,7,5,3,6,6,5,0,0,5,4,0,4,6,6,1,0,5,0,3,0,6,4,6,0,5,7,0,0,0,0,0,0,0,0,0,0,0,0,0,0,0,0,0,0],"split_type":[0,0,0,0,0,0,0,0,0,0,0,0,0,0,0,0,0,0,0,0,0,0,0,0,0,0,0,0,0,0,0,0,0,0,0,0,0,0,0,0,0,0,0,0,0],"sum_hessian":[1.0837064E3,3.25337E2,7.5836945E2,9.221923E1,2.3311778E2,3.9694003E2,3.614294E2,9.047981E1,1.7394171E0,1.7826369E2,5.485409E1,3.1052517E1,3.658875E2,1.0019376E1,3.5141003E2,8.543419E1,9.2829506E1,4.9098034E0,4.994429E1,2.8935461E1,2.1170561E0,2.17007E2,1.4888051E2,7.728849E0,2.2905273E0,3.1405228E2,3.7357773E1,3.969801E1,4.573618E1,8.032419E1,1.2505318E1,2.951891E0,1.9579127E0,2.988305E0,2.5947155E1,4.1373432E1,1.7563356E2,1.8738956E1,1.3014156E2,1.9500841E0,5.7787647E0,4.1300148E1,2.7275214E2,2.5847497E0,3.477302E1],"tree_param":{"num_deleted":"0","num_feature":"8","num_nodes":"45","size_leaf_vector":"1"}},{"base_weights":[2.4362102E-3,4.838969E-1,-1.9846478E-1,1.0170507E0,2.776567E-1,-4.6762267E-1,8.796251E-2,1.028082E-1,2.9805604E-2,7.872792E-2,9.3599135E-1,8.1376E-1,-5.757289E-1,1.4788148E0,4.126078E-2,-4.643748E-1,5.82412E-1,3.585541E-1,9.8719664E-2,8.661454E-1,6.9367304E-3,-6.7594993E-1,9.330899E-2,2.0704734E0,-7.5314134E-2,-5.152164E-2,8.3521545E-1,-1.1471168E-1,9.205303E-3,7.260493E-2,-2.650769E-2,7.726132E-2,-2.766488E-2,8.947264E-2,1.6917609E-2,-1.0895906E-1,-3.960518E-2,2.8211057E-2,2.4937406E-1,-1.0435646E-1,8.9504225E-3,9.613152E-2,1.0701659E-2],"categories":[],"categories_nodes":[],"categories_segments":[],"categories_sizes":[],"default_left":[0,0,0,0,0,0,0,0,0,0,0,0,0,0,0,0,0,0,0,0,0,0,0,0,0,0,0,0,0,0,0,0,0,0,0,0,0,0,0,0,0,0,0],"id":26,"left_children":[1,3,5,7,9,11,13,-1,-1,15,17,19,21,23,25,27,29,31,-1,33,-1,35,-1,37,-1,39,41,-1,-1,-1,-1,-1,-1,-1,-1,-1,-1,-1,-1,-1,-1,-1,-1],"loss_changes":[1.00536224E2,3.336651E1,5.6580696E1,3.6760712E-1,2.9004328E1,5.286547E1,2.307183E1,0E0,0E0,4.7212833E1,1.1667557E0,1.1036587E0,5.3466095E1,1.679996E1,2.5501245E1,3.1685215E1,1.1084482E1,1.7285968E0,0E0,4.0229225E-1,0E0,3.7569046E1,0E0,6.4038925E0,0E0,4.351608E1,3.2229404E0,0E0,0E0,0E0,0E0,0E0,0E0,0E0,0E0,0E0,0E0,0E0,0E0,0E0,0E0,0E0,0E0],"parents":[2147483647,0,0,1,1,2,2,3,3,4,4,5,5,6,6,9,9,10,10,11,11,12,12,13,13,14,14,15,15,16,16,17,17,19,19,21,21,23,23,25,25,26,26],"right_children":[2,4,6,8,10,12,14,-1,-1,16,18,20,22,24,26,28,30,32,-1,34,-1,36,-1,38,-1,40,42,-1,-1,-1,-1,-1,-1,-1,-1,-1,-1,-1,-1,-1,-1,-1,-1],"split_conditions":[-8.695113E-1,-1.4009043E0,1.1211635E0,-8.916142E-1,2.5051866E0,-2.560895E0,1.1368848E0,1.028082E-1,2.9805604E-2,1.2469338E0,2.3951323E0,1.2996583E0,2.5051866E0,-1.0993515E0,1.3499165E0,3.9792776E-1,7.553295E-1,-9.697676E-1,9.8719664E-2,1.9003923E0,6.9367304E-3,-1.3929361E-1,9.330899E-2,-1.1703852E0,-7.5314134E-2,1.4984744E0,7.553295E-1,-1.1471168E-1,9.205303E-3,7.260493E-2,-2.650769E-2,7.726132E-2,-2.766488E-2,8.947264E-2,1.6917609E-2,-1.0895906E-1,-3.960518E-2,2.8211057E-2,2.4937406E-1,-1.0435646E-1,8.9504225E-3,9.613152E-2,1.0701659E-2],"split_indices":[3,7,5,3,6,6,5,0,0,5,4,7,6,6,6,1,0,5,0,1,0,2,0,6,0,5,0,0,0,0,0,0,0,0,0,0,0,0,0,0,0,0,0],"split_type":[0,0,0,0,0,0,0,0,0,0,0,0,0,0,0,0,0,0,0,0,0,0,0,0,0,0,0,0,0,0,0,0,0,0,0,0,0,0,0,0,0,0,0],"sum_hessian":[1.0373998E3,3.050166E2,7.323832E2,8.3982124E1,2.2103448E2,3.772479E2,3.551353E2,8.228969E1,1.6924375E0,1.7060301E2,5.0431477E1,2.8843124E1,3.4840475E2,1.0541044E1,3.4459427E2,8.212687E1,8.8476135E1,4.7596493E0,4.567183E1,2.6793983E1,2.0491405E0,3.2722156E2,2.1183203E1,8.38947E0,2.1515744E0,3.0937543E2,3.5218845E1,3.6400974E1,4.5725895E1,7.5776405E1,1.2699731E1,2.7504406E0,2.0092087E0,2.5465948E1,1.3280351E0,1.3089249E2,1.9632907E2,1.9245368E0,6.4649334E0,3.770945E1,2.71666E2,2.9747456E1,5.4713902E0],"tree_param":{"num_deleted":"0","num_feature":"8","num_nodes":"43","size_leaf_vector":"1"}},{"base_weights":[2.6284428E-3,-3.1816152E-1,2.80187E-1,2.611895E-1,-5.6779194E-1,1.1513108E-2,6.612354E-1,-1.05846934E-1,1.6639898E0,-1.0198073E0,-9.216336E-2,-2.4072525E-1,6.54069E-1,8.549144E-1,4.7313324E-3,-6.672222E-1,8.4057665E-1,-2.695582E-2,2.8139026E0,1.9060904E-1,-1.0433405E-1,5.8146268E-2,-1.6121377E-1,-6.717761E-1,2.8419843E-1,4.3863502E-1,1.02977775E-1,7.495646E-1,3.1243274E-1,-2.4859585E-1,9.5414005E-2,-1.0326111E-1,7.555606E-2,8.850502E-2,-9.6307736E-4,1.1083575E-1,-1.1969421E-1,6.648106E-1,1.6054294E-1,-5.6554712E-2,6.768304E-2,-2.4185133E-1,1.440005E-2,-1.16387784E-1,4.977385E-2,5.216512E-2,-5.842322E-2,-5.6471836E-2,8.565311E-2,1.891573E-1,6.1975528E-2,-7.97803E-2,5.2907743E-2],"categories":[],"categories_nodes":[],"categories_segments":[],"categories_sizes":[],"default_left":[0,0,0,0,0,0,0,0,0,0,0,0,0,0,0,0,0,0,0,0,0,0,0,0,0,0,0,0,0,0,0,0,0,0,0,0,0,0,0,0,0,0,0,0,0,0,0,0,0,0,0,0,0],"id":27,"left_children":[1,3,5,7,9,11,13,15,17,19,21,23,25,27,29,31,33,35,37,39,-1,41,-1,43,45,47,-1,49,-1,51,-1,-1,-1,-1,-1,-1,-1,-1,-1,-1,-1,-1,-1,-1,-1,-1,-1,-1,-1,-1,-1,-1,-1],"loss_changes":[8.844828E1,6.6791725E1,5.451567E1,7.197443E1,6.921042E1,5.094574E1,2.7996033E1,5.9783703E1,5.6423645E1,4.9040833E0,3.6231697E1,5.1272278E1,6.719902E0,3.831156E1,1.25445175E1,3.744364E1,1.5944862E0,1.8223293E1,6.929442E1,1.8518677E0,0E0,3.1160057E1,0E0,7.209289E1,2.144063E1,2.4826042E1,0E0,2.3111702E1,0E0,1.8013138E1,0E0,0E0,0E0,0E0,0E0,0E0,0E0,0E0,0E0,0E0,0E0,0E0,0E0,0E0,0E0,0E0,0E0,0E0,0E0,0E0,0E0,0E0,0E0],"parents":[2147483647,0,0,1,1,2,2,3,3,4,4,5,5,6,6,7,7,8,8,9,9,10,10,11,11,12,12,13,13,14,14,15,15,16,16,17,17,18,18,19,19,21,21,23,23,24,24,25,25,27,27,29,29],"right_children":[2,4,6,8,10,12,14,16,18,20,22,24,26,28,30,32,34,36,38,40,-1,42,-1,44,46,48,-1,50,-1,52,-1,-1,-1,-1,-1,-1,-1,-1,-1,-1,-1,-1,-1,-1,-1,-1,-1,-1,-1,-1,-1,-1,-1],"split_conditions":[4.2885238E-1,-1.0633464E0,7.98585E-1,-1.1082395E0,1.4984744E0,2.025831E0,1.2802591E0,3.9876037E0,6.7769253E-1,-8.916142E-1,1.3940002E-1,1.2783765E0,1.1211635E0,1.800228E0,2.320991E0,1.8286214E0,2.2506614E0,-1.5588464E0,6.88744E-1,1.2994065E0,-1.0433405E-1,-8.8881856E-1,-1.6121377E-1,-5.600705E-1,-6.705851E-1,2.5051866E0,1.02977775E-1,-1.3627998E0,3.1243274E-1,1.3569828E0,9.5414005E-2,-1.0326111E-1,7.555606E-2,8.850502E-2,-9.6307736E-4,1.1083575E-1,-1.1969421E-1,6.648106E-1,1.6054294E-1,-5.6554712E-2,6.768304E-2,-2.4185133E-1,1.440005E-2,-1.16387784E-1,4.977385E-2,5.216512E-2,-5.842322E-2,-5.6471836E-2,8.565311E-2,1.891573E-1,6.1975528E-2,-7.97803E-2,5.2907743E-2],"split_indices":[4,6,1,4,5,4,2,3,3,3,4,5,5,1,6,5,0,2,3,1,0,6,0,3,3,6,0,5,0,5,0,0,0,0,0,0,0,0,0,0,0,0,0,0,0,0,0,0,0,0,0,0,0],"split_type":[0,0,0,0,0,0,0,0,0,0,0,0,0,0,0,0,0,0,0,0,0,0,0,0,0,0,0,0,0,0,0,0,0,0,0,0,0,0,0,0,0,0,0,0,0,0,0,0,0,0,0,0,0],"sum_hessian":[9.9137555E2,4.5980588E2,5.3156964E2,1.3844699E2,3.213589E2,3.1235858E2,2.192111E2,1.1046806E2,2.7978928E1,1.6418292E2,1.5717596E2,2.247552E2,8.760336E1,1.6903955E2,5.017155E1,6.9524376E1,4.0943684E1,1.1720501E1,1.6258427E1,2.995787E0,1.6118713E2,1.4390683E2,1.3269141E1,1.2325902E2,1.01496185E2,5.705508E1,3.0548283E1,1.6281184E2,6.2277007E0,4.018681E1,9.984739E0,5.5536198E1,1.3988179E1,3.8869476E1,2.0742073E0,5.9751253E0,5.745376E0,2.8175988E0,1.3440827E1,1.1085922E0,1.8871948E0,3.911141E0,1.3999568E2,8.67582E1,3.6500813E1,8.001674E1,2.147945E1,1.6672844E1,4.0382236E1,1.5232318E1,1.4757953E2,2.3537975E1,1.6648834E1],"tree_param":{"num_deleted":"0","num_feature":"8","num_nodes":"53","size_leaf_vector":"1"}},{"base_weights":[2.2529478E-3,2.780792E-1,-3.0407208E-1,7.3359877E-1,5.7776418E-2,2.4703579E-1,-5.360318E-1,5.534042E-1,1.5503459E0,-8.5558414E-1,2.07169E-1,-1.0021572E-1,1.4679797E0,-1.0012636E0,-7.959076E-2,7.5004596E-1,-6.617271E-1,3.658977E0,1.0556391E-1,5.7307565E-1,-1.0817857E0,5.9692375E-2,1.8124758E0,3.9041093E-1,-1.1080797E0,-2.206343E-2,2.3354118E0,-1.0426213E-1,8.0337405E-2,-2.1102858E-1,-1.2383358E-2,9.889891E-2,3.3996444E-2,-9.050857E-2,7.714478E-2,5.412711E-1,2.250021E-1,-1.2595598E-1,9.142486E-2,-1.0114815E-1,1.0500987E-1,2.6480278E-2,-1.1920823E-1,-3.678785E-2,6.1480325E-2,3.2089087E-1,2.194743E-2,8.7930456E-2,-7.982708E-3,-1.4391664E-1,5.614404E-2,1.0882765E-1,-1.17563844E-1,4.132719E-1,1.4729461E-1,-3.6314078E-2,3.2228265E-2],"categories":[],"categories_nodes":[],"categories_segments":[],"categories_sizes":[],"default_left":[0,0,0,0,0,0,0,0,0,0,0,0,0,0,0,0,0,0,0,0,0,0,0,0,0,0,0,0,0,0,0,0,0,0,0,0,0,0,0,0,0,0,0,0,0,0,0,0,0,0,0,0,0,0,0,0,0],"id":28,"left_children":[1,3,5,7,9,11,13,15,17,19,21,23,25,27,29,31,33,35,37,39,41,43,45,47,49,51,53,-1,-1,-1,55,-1,-1,-1,-1,-1,-1,-1,-1,-1,-1,-1,-1,-1,-1,-1,-1,-1,-1,-1,-1,-1,-1,-1,-1,-1,-1],"loss_changes":[8.039801E1,5.020311E1,5.7766506E1,2.3150215E1,4.63739E1,5.7059113E1,6.736588E1,3.280142E1,8.774919E1,1.6063076E1,6.896829E1,5.2574303E1,3.8552788E1,1.2570755E1,2.2002453E1,1.1112083E1,7.451458E0,1.681253E1,2.1240242E1,6.493599E0,6.494484E0,6.3897495E1,5.383097E1,1.6544865E1,2.003571E1,1.6587116E1,2.3112022E1,0E0,0E0,0E0,1.8575254E1,0E0,0E0,0E0,0E0,0E0,0E0,0E0,0E0,0E0,0E0,0E0,0E0,0E0,0E0,0E0,0E0,0E0,0E0,0E0,0E0,0E0,0E0,0E0,0E0,0E0,0E0],"parents":[2147483647,0,0,1,1,2,2,3,3,4,4,5,5,6,6,7,7,8,8,9,9,10,10,11,11,12,12,13,13,14,14,15,15,16,16,17,17,18,18,19,19,20,20,21,21,22,22,23,23,24,24,25,25,26,26,30,30],"right_children":[2,4,6,8,10,12,14,16,18,20,22,24,26,28,30,32,34,36,38,40,42,44,46,48,50,52,54,-1,-1,-1,56,-1,-1,-1,-1,-1,-1,-1,-1,-1,-1,-1,-1,-1,-1,-1,-1,-1,-1,-1,-1,-1,-1,-1,-1,-1,-1],"split_conditions":[-5.1033896E-1,-9.0080017E-1,-1.0633464E0,-6.650593E-1,3.685882E-1,-1.1082395E0,1.4984744E0,-8.529341E-1,-6.4848214E-1,-2.1992017E-1,-5.600705E-1,-1.6472198E0,6.7769253E-1,2.5051866E0,-8.8881856E-1,-1.4009043E0,1.8286214E0,-1.3627998E0,-5.4349333E-1,-2.299013E-1,-1.1789521E0,1.2783765E0,-5.4901904E-1,-2.560895E0,1.4997E0,-1.5116665E-1,6.88744E-1,-1.0426213E-1,8.0337405E-2,-2.1102858E-1,4.0148836E-1,9.889891E-2,3.3996444E-2,-9.050857E-2,7.714478E-2,5.412711E-1,2.250021E-1,-1.2595598E-1,9.142486E-2,-1.0114815E-1,1.0500987E-1,2.6480278E-2,-1.1920823E-1,-3.678785E-2,6.1480325E-2,3.2089087E-1,2.194743E-2,8.7930456E-2,-7.982708E-3,-1.4391664E-1,5.614404E-2,1.0882765E-1,-1.17563844E-1,4.132719E-1,1.4729461E-1,-3.6314078E-2,3.2228265E-2],"split_indices":[3,7,6,3,6,4,5,3,3,4,3,4,3,6,6,7,5,5,3,4,3,5,3,6,7,3,3,0,0,0,2,0,0,0,0,0,0,0,0,0,0,0,0,0,0,0,0,0,0,0,0,0,0,0,0,0,0],"split_type":[0,0,0,0,0,0,0,0,0,0,0,0,0,0,0,0,0,0,0,0,0,0,0,0,0,0,0,0,0,0,0,0,0,0,0,0,0,0,0,0,0,0,0,0,0,0,0,0,0,0,0,0,0,0,0,0,0],"sum_hessian":[9.495395E2,4.996913E2,4.4984814E2,1.6212856E2,3.3756274E2,1.3323444E2,3.166137E2,1.3419861E2,2.7929945E1,4.678714E1,2.907756E2,1.0444648E2,2.8787949E1,1.5620581E2,1.604079E2,1.1583592E2,1.8362696E1,1.0732917E1,1.7197027E1,6.185683E0,4.0601456E1,2.672601E2,2.3515518E1,7.06613E1,3.378518E1,1.0951105E1,1.7836843E1,1.5311897E2,3.0868402E0,4.1648846E0,1.5624303E2,7.229812E1,4.3537804E1,1.6012232E1,2.3504634E0,3.515505E0,7.217412E0,6.190103E0,1.1006925E1,1.17204E0,5.013643E0,2.967767E0,3.763369E1,1.5116412E2,1.1609598E2,1.1990343E1,1.1525174E1,3.4216957E1,3.6444347E1,2.8309109E1,5.476073E0,5.6089654E0,5.34214E0,4.5543027E0,1.3282541E1,7.624594E1,7.999708E1],"tree_param":{"num_deleted":"0","num_feature":"8","num_nodes":"57","size_leaf_vector":"1"}},{"base_weights":[1.9686474E-3,4.3820667E-1,-1.7101623E-1,1.0010269E0,2.4477312E-1,-4.2417127E-1,7.1980685E-2,1.01524726E-1,2.0814655E-2,4.9933665E-2,9.091929E-1,-5.073363E-1,9.031906E-2,-4.1791694E-3,7.7331805E-1,-8.940997E-1,2.9638058E-1,3.0109593E-1,9.678735E-2,7.485978E-1,-6.134282E-1,-1.1878658E-1,5.301932E-1,-1.5445145E-2,8.545102E-1,3.229861E-2,-1.09975874E-1,-1.6244551E-2,5.5137705E-2,7.3600635E-2,-2.942115E-2,8.129821E-2,-4.6424805E-3,-1.07246816E-1,-3.4199707E-2,1.1683508E-3,-1.1001172E-1,6.952594E-2,-8.343611E-2,-6.296698E-3,9.117662E-2],"categories":[],"categories_nodes":[],"categories_segments":[],"categories_sizes":[],"default_left":[0,0,0,0,0,0,0,0,0,0,0,0,0,0,0,0,0,0,0,0,0,0,0,0,0,0,0,0,0,0,0,0,0,0,0,0,0,0,0,0,0],"id":29,"left_children":[1,3,5,7,9,11,13,-1,-1,15,17,19,-1,21,23,25,27,29,-1,31,33,35,37,-1,39,-1,-1,-1,-1,-1,-1,-1,-1,-1,-1,-1,-1,-1,-1,-1,-1],"loss_changes":[6.938605E1,2.8178108E1,4.053292E1,5.3795624E-1,2.5279081E1,3.6070892E1,1.7992851E1,0E0,0E0,3.570367E1,1.2893562E0,4.0995743E1,0E0,1.8729925E1,2.6175194E0,8.310429E0,1.4309779E1,1.6017495E0,0E0,1.273776E0,3.465509E1,3.2250782E1,1.2745352E1,0E0,1.6593094E0,0E0,0E0,0E0,0E0,0E0,0E0,0E0,0E0,0E0,0E0,0E0,0E0,0E0,0E0,0E0,0E0],"parents":[2147483647,0,0,1,1,2,2,3,3,4,4,5,5,6,6,9,9,10,10,11,11,13,13,14,14,15,15,16,16,17,17,19,19,20,20,21,21,22,22,24,24],"right_children":[2,4,6,8,10,12,14,-1,-1,16,18,20,-1,22,24,26,28,30,-1,32,34,36,38,-1,40,-1,-1,-1,-1,-1,-1,-1,-1,-1,-1,-1,-1,-1,-1,-1,-1],"split_conditions":[-8.695113E-1,-1.4009043E0,1.1211635E0,-8.916142E-1,2.5051866E0,2.5051866E0,1.3499165E0,1.01524726E-1,2.0814655E-2,8.3558634E-2,2.3951323E0,-2.560895E0,9.031906E-2,1.8443427E0,-8.0077934E-1,-1.3008835E0,1.3270653E0,-9.697676E-1,9.678735E-2,1.2996583E0,-1.3929361E-1,5.1093894E-1,2.0015557E0,-1.5445145E-2,1.2940977E0,3.229861E-2,-1.09975874E-1,-1.6244551E-2,5.5137705E-2,7.3600635E-2,-2.942115E-2,8.129821E-2,-4.6424805E-3,-1.07246816E-1,-3.4199707E-2,1.1683508E-3,-1.1001172E-1,6.952594E-2,-8.343611E-2,-6.296698E-3,9.117662E-2],"split_indices":[3,7,5,3,6,6,6,0,0,5,4,6,0,5,7,7,6,5,0,7,2,6,5,0,5,0,0,0,0,0,0,0,0,0,0,0,0,0,0,0,0],"split_type":[0,0,0,0,0,0,0,0,0,0,0,0,0,0,0,0,0,0,0,0,0,0,0,0,0,0,0,0,0,0,0,0,0,0,0,0,0,0,0,0,0],"sum_hessian":[9.1748315E2,2.6007803E2,6.5740515E2,6.545451E1,1.946235E2,3.216076E2,3.3579752E2,6.402576E1,1.4287544E0,1.5132344E2,4.3300068E1,3.032269E2,1.8380703E1,3.038011E2,3.1996426E1,3.078215E1,1.2054129E2,4.3502474E0,3.894982E1,2.3147438E1,2.8007947E2,2.5079132E2,5.300977E1,2.502175E0,2.9494251E1,4.367122E0,2.6415028E1,4.319022E1,7.7351074E1,2.3772016E0,1.9730456E0,2.1392403E1,1.7550365E0,1.02976364E2,1.771031E2,2.2223305E2,2.855828E1,4.7726875E1,5.2828946E0,1.7266401E0,2.776761E1],"tree_param":{"num_deleted":"0","num_feature":"8","num_nodes":"41","size_leaf_vector":"1"}},{"base_weights":[2.1884067E-3,2.577953E-1,-2.8229034E-1,8.6409307E-1,1.1540496E-1,-7.810018E-1,-4.488653E-2,7.036311E-1,2.0333333E0,-8.321515E-1,2.5387967E-1,7.3292226E-1,-1.0320567E-1,1.8860035E0,-1.1513969E-1,1.0099465E-1,-6.706039E-2,2.4365751E-1,6.051897E-2,5.240498E-1,-1.0333064E0,1.4002082E-1,1.5107852E0,8.1246203E-1,-7.409332E-3,2.8064704E0,-8.036627E-2,-3.2414138E-1,2.1716659E-1,-7.36328E-2,9.774866E-2,-9.8442174E-2,1.0143822E-1,3.982349E-2,-1.20836355E-1,-1.8530944E-2,5.8375757E-2,2.547136E-1,2.481643E-2,8.574346E-2,3.5055347E-3,3.3609977E-1,1.2032523E-2,-1.5520942E-2,-1.5709966E-1,-5.3643625E-2,4.6269067E-2],"categories":[],"categories_nodes":[],"categories_segments":[],"categories_sizes":[],"default_left":[0,0,0,0,0,0,0,0,0,0,0,0,0,0,0,0,0,0,0,0,0,0,0,0,0,0,0,0,0,0,0,0,0,0,0,0,0,0,0,0,0,0,0,0,0,0,0],"id":30,"left_children":[1,3,5,7,9,11,13,15,17,19,21,23,-1,25,27,-1,29,-1,-1,31,33,35,37,39,-1,41,-1,43,45,-1,-1,-1,-1,-1,-1,-1,-1,-1,-1,-1,-1,-1,-1,-1,-1,-1,-1],"loss_changes":[6.4353264E1,4.0143955E1,4.9555496E1,1.5173988E1,4.989537E1,5.2075684E1,3.8854706E1,1.8800602E1,4.3711624E0,1.3776463E1,4.717775E1,1.3305616E0,0E0,2.7153904E1,1.922356E1,0E0,1.7152624E1,0E0,0E0,6.1242146E0,1.1152897E1,4.4100216E1,3.5225277E1,6.027098E-1,0E0,1.1087921E1,0E0,3.5500095E1,2.0060272E1,0E0,0E0,0E0,0E0,0E0,0E0,0E0,0E0,0E0,0E0,0E0,0E0,0E0,0E0,0E0,0E0,0E0,0E0],"parents":[2147483647,0,0,1,1,2,2,3,3,4,4,5,5,6,6,7,7,8,8,9,9,10,10,11,11,13,13,14,14,16,16,19,19,20,20,21,21,22,22,23,23,25,25,27,27,28,28],"right_children":[2,4,6,8,10,12,14,16,18,20,22,24,-1,26,28,-1,30,-1,-1,32,34,36,38,40,-1,42,-1,44,46,-1,-1,-1,-1,-1,-1,-1,-1,-1,-1,-1,-1,-1,-1,-1,-1,-1,-1],"split_conditions":[-5.1033896E-1,-1.4009043E0,5.5519724E-1,1.800228E0,3.685882E-1,-2.560895E0,6.023611E-1,-8.916142E-1,4.8873907E-1,-2.1992017E-1,-5.600705E-1,2.2506614E0,-1.0320567E-1,-1.1307181E0,1.6714085E0,1.0099465E-1,-5.4349333E-1,2.4365751E-1,6.051897E-2,-2.299013E-1,-1.1789521E0,1.2783765E0,-5.4901904E-1,1.9003923E0,-7.409332E-3,6.88744E-1,-8.036627E-2,1.6085234E0,-1.12486556E-1,-7.36328E-2,9.774866E-2,-9.8442174E-2,1.0143822E-1,3.982349E-2,-1.20836355E-1,-1.8530944E-2,5.8375757E-2,2.547136E-1,2.481643E-2,8.574346E-2,3.5055347E-3,3.3609977E-1,1.2032523E-2,-1.5520942E-2,-1.5709966E-1,-5.3643625E-2,4.6269067E-2],"split_indices":[3,7,5,1,6,6,5,3,4,4,3,0,0,6,5,0,3,0,0,4,3,5,3,1,0,3,0,5,3,0,0,0,0,0,0,0,0,0,0,0,0,0,0,0,0,0,0],"split_type":[0,0,0,0,0,0,0,0,0,0,0,0,0,0,0,0,0,0,0,0,0,0,0,0,0,0,0,0,0,0,0,0,0,0,0,0,0,0,0,0,0,0,0,0,0,0,0],"sum_hessian":[8.8300916E2,4.6515588E2,4.1785327E2,8.7502396E1,3.776535E2,1.3402296E2,2.838303E2,7.8351524E1,9.150873E0,4.7514084E1,3.301394E2,1.8790735E1,1.1523223E2,9.056936E0,2.7477338E2,5.5845142E1,2.2506384E1,6.585358E0,2.5655148E0,5.9297895E0,4.1584293E1,3.0373636E2,2.6403053E1,1.709873E1,1.6920055E0,6.7153563E0,2.34158E0,1.686971E2,1.0607627E2,1.3897182E1,8.6092005E0,1.2074611E0,4.722328E0,4.392168E0,3.7192127E1,1.7558601E2,1.2815034E2,1.3942118E1,1.2460936E1,1.6066359E1,1.0323716E0,5.3580146E0,1.3573418E0,1.4955844E2,1.9138655E1,2.577587E1,8.030041E1],"tree_param":{"num_deleted":"0","num_feature":"8","num_nodes":"47","size_leaf_vector":"1"}},{"base_weights":[2.2506558E-3,-7.212704E-2,9.223722E-1,4.5152023E-1,-1.7954122E-1,7.8453624E-1,1.0135285E-1,7.3750323E-1,-2.422493E-1,-5.314352E-1,1.1321089E-1,8.363438E-1,6.9882884E-4,6.222118E-1,1.5792286E0,-7.974827E-1,6.2687576E-1,6.822432E-1,-6.151382E-1,-4.946139E-3,8.406722E-1,6.1015093E-1,9.8716855E-2,8.858162E-2,-2.413516E-2,1.9639792E-1,-3.8045462E-2,9.847775E-2,-1.3604479E-1,-8.542517E-2,1.23762086E-1,8.012735E-2,-5.3257677E-3,-1.06979944E-1,-3.4129214E-2,-5.1935103E-2,1.0269433E-2,1.0241224E-1,-4.3970235E-3,8.467743E-2,-7.4779647E-3],"categories":[],"categories_nodes":[],"categories_segments":[],"categories_sizes":[],"default_left":[0,0,0,0,0,0,0,0,0,0,0,0,0,0,0,0,0,0,0,0,0,0,0,0,0,0,0,0,0,0,0,0,0,0,0,0,0,0,0,0,0],"id":31,"left_children":[1,3,5,7,9,11,-1,13,15,17,19,21,-1,23,25,27,29,31,33,35,37,39,-1,-1,-1,-1,-1,-1,-1,-1,-1,-1,-1,-1,-1,-1,-1,-1,-1,-1,-1],"loss_changes":[5.8909195E1,4.487835E1,1.3725281E-2,2.7131655E1,6.821555E1,1.2047806E0,0E0,8.376465E0,1.9998386E1,3.0959412E1,3.1116913E1,3.5861778E-1,0E0,1.9898579E1,9.017063E0,2.651896E1,1.5811624E1,1.7821703E0,3.471514E1,1.7350283E1,8.254032E0,2.313929E0,0E0,0E0,0E0,0E0,0E0,0E0,0E0,0E0,0E0,0E0,0E0,0E0,0E0,0E0,0E0,0E0,0E0,0E0,0E0],"parents":[2147483647,0,0,1,1,2,2,3,3,4,4,5,5,7,7,8,8,9,9,10,10,11,11,13,13,14,14,15,15,16,16,17,17,18,18,19,19,20,20,21,21],"right_children":[2,4,6,8,10,12,-1,14,16,18,20,22,-1,24,26,28,30,32,34,36,38,40,-1,-1,-1,-1,-1,-1,-1,-1,-1,-1,-1,-1,-1,-1,-1,-1,-1,-1,-1],"split_conditions":[2.5051866E0,-1.3008835E0,2.734772E0,-5.1033896E-1,1.1211635E0,1.1996374E0,1.0135285E-1,1.800228E0,1.6714085E0,-2.560895E0,1.679324E0,7.553295E-1,6.9882884E-4,-8.695113E-1,1.3478569E0,-2.560895E0,-1.4009043E0,1.1450636E0,-1.3929361E-1,1.4984744E0,7.553295E-1,-1.00633465E-1,9.8716855E-2,8.858162E-2,-2.413516E-2,1.9639792E-1,-3.8045462E-2,9.847775E-2,-1.3604479E-1,-8.542517E-2,1.23762086E-1,8.012735E-2,-5.3257677E-3,-1.06979944E-1,-3.4129214E-2,-5.1935103E-2,1.0269433E-2,1.0241224E-1,-4.3970235E-3,8.467743E-2,-7.4779647E-3],"split_indices":[6,7,6,3,5,7,0,1,5,6,6,0,0,3,2,6,7,2,2,5,0,7,0,0,0,0,0,0,0,0,0,0,0,0,0,0,0,0,0,0,0],"split_type":[0,0,0,0,0,0,0,0,0,0,0,0,0,0,0,0,0,0,0,0,0,0,0,0,0,0,0,0,0,0,0,0,0,0,0,0,0,0,0,0,0],"sum_hessian":[8.5881384E2,7.9543665E2,6.337722E1,1.348475E2,6.605891E2,2.9053038E1,3.432418E1,9.544181E1,3.9405693E1,2.9962204E2,3.6096707E2,2.7167278E1,1.885759E0,8.547366E1,9.968147E0,2.409514E1,1.5310553E1,1.886933E1,2.8075272E2,3.113841E2,4.9582985E1,1.2886594E1,1.4280684E1,6.5464676E1,2.0008987E1,8.33042E0,1.637728E0,5.6041155E0,1.8491026E1,4.3536773E0,1.0956875E1,1.6163994E1,2.7053359E0,1.0444241E2,1.763103E2,5.3220913E1,2.5816318E2,4.0936275E1,8.646709E0,9.40214E0,3.484454E0],"tree_param":{"num_deleted":"0","num_feature":"8","num_nodes":"41","size_leaf_vector":"1"}},{"base_weights":[2.7817788E-3,-6.723497E-2,9.082357E-1,4.332747E-1,-1.6738026E-1,7.6311076E-1,1.0067437E-1,7.064691E-1,-2.3169099E-1,-5.0515413E-1,1.0409802E-1,8.1713253E-1,6.5351644E-4,5.993257E-1,1.4364789E0,-7.796053E-1,5.847621E-1,-9.263639E-1,-2.635104E-1,-4.7072154E-3,8.1550854E-1,5.856207E-1,9.7635664E-2,8.70045E-2,-2.1821678E-2,1.7942221E-1,-3.534494E-2,9.6171595E-2,-1.3355494E-1,-7.490039E-2,1.1938075E-1,6.861658E-2,-1.0629874E-1,1.165843E-1,-4.8495546E-2,1.1995938E-1,-5.138135E-3,1.0088398E-1,-3.990781E-3,8.293673E-2,-6.858878E-3],